<?xml version="1.0" encoding="UTF-8" standalone="yes"?>
<PMML xmlns="http://www.dmg.org/PMML-4_4" xmlns:data="http://jpmml.org/jpmml-model/InlineTable" version="4.4">
	<Header>
		<Application name="SkLearn2PMML package" version="0.123.0"/>
		<Timestamp>2025-10-16T15:09:12Z</Timestamp>
	</Header>
	<MiningBuildTask>
		<Extension name="repr">PMMLPipeline(steps=[('classifier', RandomForestClassifier(random_state=42))])</Extension>
	</MiningBuildTask>
	<DataDictionary>
		<DataField name="target" optype="categorical" dataType="integer">
			<Value value="0"/>
			<Value value="1"/>
			<Value value="2"/>
		</DataField>
		<DataField name="sepal length (cm)" optype="continuous" dataType="float"/>
		<DataField name="sepal width (cm)" optype="continuous" dataType="float"/>
		<DataField name="petal length (cm)" optype="continuous" dataType="float"/>
		<DataField name="petal width (cm)" optype="continuous" dataType="float"/>
	</DataDictionary>
	<MiningModel functionName="classification" algorithmName="sklearn.ensemble._forest.RandomForestClassifier">
		<MiningSchema>
			<MiningField name="target" usageType="target"/>
			<MiningField name="petal width (cm)"/>
			<MiningField name="petal length (cm)"/>
			<MiningField name="sepal length (cm)"/>
			<MiningField name="sepal width (cm)"/>
		</MiningSchema>
		<Output>
			<OutputField name="probability(0)" optype="continuous" dataType="double" feature="probability" value="0"/>
			<OutputField name="probability(1)" optype="continuous" dataType="double" feature="probability" value="1"/>
			<OutputField name="probability(2)" optype="continuous" dataType="double" feature="probability" value="2"/>
		</Output>
		<LocalTransformations>
			<DerivedField name="double(petal width (cm))" optype="continuous" dataType="double">
				<FieldRef field="petal width (cm)"/>
			</DerivedField>
			<DerivedField name="double(petal length (cm))" optype="continuous" dataType="double">
				<FieldRef field="petal length (cm)"/>
			</DerivedField>
			<DerivedField name="double(sepal length (cm))" optype="continuous" dataType="double">
				<FieldRef field="sepal length (cm)"/>
			</DerivedField>
			<DerivedField name="double(sepal width (cm))" optype="continuous" dataType="double">
				<FieldRef field="sepal width (cm)"/>
			</DerivedField>
		</LocalTransformations>
		<Segmentation multipleModelMethod="average" missingPredictionTreatment="returnMissing">
			<Segment id="1">
				<True/>
				<TreeModel functionName="classification" missingValueStrategy="nullPrediction">
					<MiningSchema>
						<MiningField name="double(petal width (cm))"/>
						<MiningField name="double(petal length (cm))"/>
					</MiningSchema>
					<Node>
						<True/>
						<Node score="0" recordCount="1">
							<SimplePredicate field="double(petal width (cm))" operator="lessOrEqual" value="0.75"/>
							<ScoreDistribution value="0" recordCount="1"/>
							<ScoreDistribution value="1" recordCount="0"/>
							<ScoreDistribution value="2" recordCount="0"/>
						</Node>
						<Node>
							<SimplePredicate field="double(petal width (cm))" operator="lessOrEqual" value="1.550000011920929"/>
							<Node score="1" recordCount="1">
								<SimplePredicate field="double(petal length (cm))" operator="lessOrEqual" value="4.900000095367432"/>
								<ScoreDistribution value="0" recordCount="0"/>
								<ScoreDistribution value="1" recordCount="1"/>
								<ScoreDistribution value="2" recordCount="0"/>
							</Node>
							<Node score="2" recordCount="1">
								<True/>
								<ScoreDistribution value="0" recordCount="0"/>
								<ScoreDistribution value="1" recordCount="0"/>
								<ScoreDistribution value="2" recordCount="1"/>
							</Node>
						</Node>
						<Node>
							<SimplePredicate field="double(petal width (cm))" operator="lessOrEqual" value="1.6500000357627869"/>
							<Node score="1" recordCount="1">
								<SimplePredicate field="double(petal length (cm))" operator="lessOrEqual" value="5.450000047683716"/>
								<ScoreDistribution value="0" recordCount="0"/>
								<ScoreDistribution value="1" recordCount="1"/>
								<ScoreDistribution value="2" recordCount="0"/>
							</Node>
							<Node score="2" recordCount="1">
								<True/>
								<ScoreDistribution value="0" recordCount="0"/>
								<ScoreDistribution value="1" recordCount="0"/>
								<ScoreDistribution value="2" recordCount="1"/>
							</Node>
						</Node>
						<Node score="2" recordCount="1">
							<True/>
							<ScoreDistribution value="0" recordCount="0"/>
							<ScoreDistribution value="1" recordCount="0"/>
							<ScoreDistribution value="2" recordCount="1"/>
						</Node>
					</Node>
				</TreeModel>
			</Segment>
			<Segment id="2">
				<True/>
				<TreeModel functionName="classification" missingValueStrategy="nullPrediction">
					<MiningSchema>
						<MiningField name="double(petal width (cm))"/>
						<MiningField name="double(petal length (cm))"/>
						<MiningField name="double(sepal length (cm))"/>
						<MiningField name="double(sepal width (cm))"/>
					</MiningSchema>
					<Node>
						<True/>
						<Node score="0" recordCount="1">
							<SimplePredicate field="double(petal length (cm))" operator="lessOrEqual" value="2.449999988079071"/>
							<ScoreDistribution value="0" recordCount="1"/>
							<ScoreDistribution value="1" recordCount="0"/>
							<ScoreDistribution value="2" recordCount="0"/>
						</Node>
						<Node>
							<SimplePredicate field="double(petal length (cm))" operator="lessOrEqual" value="4.8500001430511475"/>
							<Node score="1" recordCount="1">
								<SimplePredicate field="double(petal length (cm))" operator="lessOrEqual" value="4.75"/>
								<ScoreDistribution value="0" recordCount="0"/>
								<ScoreDistribution value="1" recordCount="1"/>
								<ScoreDistribution value="2" recordCount="0"/>
							</Node>
							<Node score="1" recordCount="1">
								<SimplePredicate field="double(petal width (cm))" operator="lessOrEqual" value="1.5999999642372131"/>
								<ScoreDistribution value="0" recordCount="0"/>
								<ScoreDistribution value="1" recordCount="1"/>
								<ScoreDistribution value="2" recordCount="0"/>
							</Node>
							<Node score="1" recordCount="1">
								<SimplePredicate field="double(sepal length (cm))" operator="lessOrEqual" value="6.049999952316284"/>
								<ScoreDistribution value="0" recordCount="0"/>
								<ScoreDistribution value="1" recordCount="1"/>
								<ScoreDistribution value="2" recordCount="0"/>
							</Node>
							<Node score="2" recordCount="1">
								<True/>
								<ScoreDistribution value="0" recordCount="0"/>
								<ScoreDistribution value="1" recordCount="0"/>
								<ScoreDistribution value="2" recordCount="1"/>
							</Node>
						</Node>
						<Node>
							<SimplePredicate field="double(petal width (cm))" operator="lessOrEqual" value="1.699999988079071"/>
							<Node score="2" recordCount="1">
								<SimplePredicate field="double(sepal width (cm))" operator="lessOrEqual" value="2.450000047683716"/>
								<ScoreDistribution value="0" recordCount="0"/>
								<ScoreDistribution value="1" recordCount="0"/>
								<ScoreDistribution value="2" recordCount="1"/>
							</Node>
							<Node>
								<SimplePredicate field="double(petal length (cm))" operator="lessOrEqual" value="5.450000047683716"/>
								<Node score="1" recordCount="1">
									<SimplePredicate field="double(sepal length (cm))" operator="lessOrEqual" value="6.150000095367432"/>
									<ScoreDistribution value="0" recordCount="0"/>
									<ScoreDistribution value="1" recordCount="1"/>
									<ScoreDistribution value="2" recordCount="0"/>
								</Node>
								<Node score="2" recordCount="1">
									<True/>
									<ScoreDistribution value="0" recordCount="0"/>
									<ScoreDistribution value="1" recordCount="0"/>
									<ScoreDistribution value="2" recordCount="1"/>
								</Node>
							</Node>
							<Node score="2" recordCount="1">
								<True/>
								<ScoreDistribution value="0" recordCount="0"/>
								<ScoreDistribution value="1" recordCount="0"/>
								<ScoreDistribution value="2" recordCount="1"/>
							</Node>
						</Node>
						<Node score="2" recordCount="1">
							<True/>
							<ScoreDistribution value="0" recordCount="0"/>
							<ScoreDistribution value="1" recordCount="0"/>
							<ScoreDistribution value="2" recordCount="1"/>
						</Node>
					</Node>
				</TreeModel>
			</Segment>
			<Segment id="3">
				<True/>
				<TreeModel functionName="classification" missingValueStrategy="nullPrediction">
					<MiningSchema>
						<MiningField name="double(petal width (cm))"/>
						<MiningField name="double(petal length (cm))"/>
						<MiningField name="double(sepal width (cm))"/>
					</MiningSchema>
					<Node>
						<True/>
						<Node score="0" recordCount="1">
							<SimplePredicate field="double(petal length (cm))" operator="lessOrEqual" value="2.449999988079071"/>
							<ScoreDistribution value="0" recordCount="1"/>
							<ScoreDistribution value="1" recordCount="0"/>
							<ScoreDistribution value="2" recordCount="0"/>
						</Node>
						<Node>
							<SimplePredicate field="double(petal width (cm))" operator="lessOrEqual" value="1.699999988079071"/>
							<Node>
								<SimplePredicate field="double(sepal width (cm))" operator="lessOrEqual" value="2.3000000715255737"/>
								<Node score="1" recordCount="1">
									<SimplePredicate field="double(petal length (cm))" operator="lessOrEqual" value="4.75"/>
									<ScoreDistribution value="0" recordCount="0"/>
									<ScoreDistribution value="1" recordCount="1"/>
									<ScoreDistribution value="2" recordCount="0"/>
								</Node>
								<Node score="2" recordCount="1">
									<True/>
									<ScoreDistribution value="0" recordCount="0"/>
									<ScoreDistribution value="1" recordCount="0"/>
									<ScoreDistribution value="2" recordCount="1"/>
								</Node>
							</Node>
							<Node score="1" recordCount="1">
								<True/>
								<ScoreDistribution value="0" recordCount="0"/>
								<ScoreDistribution value="1" recordCount="1"/>
								<ScoreDistribution value="2" recordCount="0"/>
							</Node>
						</Node>
						<Node score="2" recordCount="1">
							<True/>
							<ScoreDistribution value="0" recordCount="0"/>
							<ScoreDistribution value="1" recordCount="0"/>
							<ScoreDistribution value="2" recordCount="1"/>
						</Node>
					</Node>
				</TreeModel>
			</Segment>
			<Segment id="4">
				<True/>
				<TreeModel functionName="classification" missingValueStrategy="nullPrediction">
					<MiningSchema>
						<MiningField name="double(petal width (cm))"/>
						<MiningField name="double(petal length (cm))"/>
						<MiningField name="double(sepal length (cm))"/>
					</MiningSchema>
					<Node>
						<True/>
						<Node score="0" recordCount="1">
							<SimplePredicate field="double(petal length (cm))" operator="lessOrEqual" value="2.449999988079071"/>
							<ScoreDistribution value="0" recordCount="1"/>
							<ScoreDistribution value="1" recordCount="0"/>
							<ScoreDistribution value="2" recordCount="0"/>
						</Node>
						<Node>
							<SimplePredicate field="double(sepal length (cm))" operator="lessOrEqual" value="6.25"/>
							<Node>
								<SimplePredicate field="double(petal length (cm))" operator="lessOrEqual" value="4.8500001430511475"/>
								<Node score="1" recordCount="1">
									<SimplePredicate field="double(petal width (cm))" operator="lessOrEqual" value="1.600000023841858"/>
									<ScoreDistribution value="0" recordCount="0"/>
									<ScoreDistribution value="1" recordCount="1"/>
									<ScoreDistribution value="2" recordCount="0"/>
								</Node>
								<Node score="2" recordCount="1">
									<SimplePredicate field="double(sepal length (cm))" operator="lessOrEqual" value="5.400000095367432"/>
									<ScoreDistribution value="0" recordCount="0"/>
									<ScoreDistribution value="1" recordCount="0"/>
									<ScoreDistribution value="2" recordCount="1"/>
								</Node>
								<Node score="1" recordCount="1">
									<True/>
									<ScoreDistribution value="0" recordCount="0"/>
									<ScoreDistribution value="1" recordCount="1"/>
									<ScoreDistribution value="2" recordCount="0"/>
								</Node>
							</Node>
							<Node score="2" recordCount="1">
								<True/>
								<ScoreDistribution value="0" recordCount="0"/>
								<ScoreDistribution value="1" recordCount="0"/>
								<ScoreDistribution value="2" recordCount="1"/>
							</Node>
						</Node>
						<Node>
							<SimplePredicate field="double(sepal length (cm))" operator="lessOrEqual" value="7.099999904632568"/>
							<Node>
								<SimplePredicate field="double(petal width (cm))" operator="lessOrEqual" value="1.649999976158142"/>
								<Node score="1" recordCount="1">
									<SimplePredicate field="double(petal length (cm))" operator="lessOrEqual" value="5.0"/>
									<ScoreDistribution value="0" recordCount="0"/>
									<ScoreDistribution value="1" recordCount="1"/>
									<ScoreDistribution value="2" recordCount="0"/>
								</Node>
								<Node score="2" recordCount="1">
									<True/>
									<ScoreDistribution value="0" recordCount="0"/>
									<ScoreDistribution value="1" recordCount="0"/>
									<ScoreDistribution value="2" recordCount="1"/>
								</Node>
							</Node>
							<Node score="2" recordCount="1">
								<True/>
								<ScoreDistribution value="0" recordCount="0"/>
								<ScoreDistribution value="1" recordCount="0"/>
								<ScoreDistribution value="2" recordCount="1"/>
							</Node>
						</Node>
						<Node score="2" recordCount="1">
							<True/>
							<ScoreDistribution value="0" recordCount="0"/>
							<ScoreDistribution value="1" recordCount="0"/>
							<ScoreDistribution value="2" recordCount="1"/>
						</Node>
					</Node>
				</TreeModel>
			</Segment>
			<Segment id="5">
				<True/>
				<TreeModel functionName="classification" missingValueStrategy="nullPrediction">
					<MiningSchema>
						<MiningField name="double(petal width (cm))"/>
						<MiningField name="double(petal length (cm))"/>
						<MiningField name="double(sepal length (cm))"/>
						<MiningField name="double(sepal width (cm))"/>
					</MiningSchema>
					<Node>
						<True/>
						<Node score="0" recordCount="1">
							<SimplePredicate field="double(petal width (cm))" operator="lessOrEqual" value="0.800000011920929"/>
							<ScoreDistribution value="0" recordCount="1"/>
							<ScoreDistribution value="1" recordCount="0"/>
							<ScoreDistribution value="2" recordCount="0"/>
						</Node>
						<Node>
							<SimplePredicate field="double(petal length (cm))" operator="lessOrEqual" value="4.950000047683716"/>
							<Node>
								<SimplePredicate field="double(petal length (cm))" operator="lessOrEqual" value="4.8500001430511475"/>
								<Node>
									<SimplePredicate field="double(sepal width (cm))" operator="lessOrEqual" value="2.549999952316284"/>
									<Node score="2" recordCount="1">
										<SimplePredicate field="double(sepal length (cm))" operator="lessOrEqual" value="5.0"/>
										<ScoreDistribution value="0" recordCount="0"/>
										<ScoreDistribution value="1" recordCount="0"/>
										<ScoreDistribution value="2" recordCount="1"/>
									</Node>
									<Node score="1" recordCount="1">
										<True/>
										<ScoreDistribution value="0" recordCount="0"/>
										<ScoreDistribution value="1" recordCount="1"/>
										<ScoreDistribution value="2" recordCount="0"/>
									</Node>
								</Node>
								<Node score="1" recordCount="1">
									<True/>
									<ScoreDistribution value="0" recordCount="0"/>
									<ScoreDistribution value="1" recordCount="1"/>
									<ScoreDistribution value="2" recordCount="0"/>
								</Node>
							</Node>
							<Node score="2" recordCount="1">
								<SimplePredicate field="double(sepal length (cm))" operator="lessOrEqual" value="6.6000001430511475"/>
								<ScoreDistribution value="0" recordCount="0"/>
								<ScoreDistribution value="1" recordCount="0"/>
								<ScoreDistribution value="2" recordCount="1"/>
							</Node>
							<Node score="1" recordCount="1">
								<True/>
								<ScoreDistribution value="0" recordCount="0"/>
								<ScoreDistribution value="1" recordCount="1"/>
								<ScoreDistribution value="2" recordCount="0"/>
							</Node>
						</Node>
						<Node>
							<SimplePredicate field="double(petal width (cm))" operator="lessOrEqual" value="1.699999988079071"/>
							<Node score="1" recordCount="1">
								<SimplePredicate field="double(sepal length (cm))" operator="lessOrEqual" value="6.599999904632568"/>
								<ScoreDistribution value="0" recordCount="0"/>
								<ScoreDistribution value="1" recordCount="1"/>
								<ScoreDistribution value="2" recordCount="0"/>
							</Node>
							<Node score="2" recordCount="1">
								<True/>
								<ScoreDistribution value="0" recordCount="0"/>
								<ScoreDistribution value="1" recordCount="0"/>
								<ScoreDistribution value="2" recordCount="1"/>
							</Node>
						</Node>
						<Node score="2" recordCount="1">
							<True/>
							<ScoreDistribution value="0" recordCount="0"/>
							<ScoreDistribution value="1" recordCount="0"/>
							<ScoreDistribution value="2" recordCount="1"/>
						</Node>
					</Node>
				</TreeModel>
			</Segment>
			<Segment id="6">
				<True/>
				<TreeModel functionName="classification" missingValueStrategy="nullPrediction">
					<MiningSchema>
						<MiningField name="double(petal width (cm))"/>
						<MiningField name="double(petal length (cm))"/>
						<MiningField name="double(sepal length (cm))"/>
					</MiningSchema>
					<Node>
						<True/>
						<Node score="0" recordCount="1">
							<SimplePredicate field="double(petal width (cm))" operator="lessOrEqual" value="0.7000000029802322"/>
							<ScoreDistribution value="0" recordCount="1"/>
							<ScoreDistribution value="1" recordCount="0"/>
							<ScoreDistribution value="2" recordCount="0"/>
						</Node>
						<Node>
							<SimplePredicate field="double(petal length (cm))" operator="lessOrEqual" value="4.75"/>
							<Node score="2" recordCount="1">
								<SimplePredicate field="double(sepal length (cm))" operator="lessOrEqual" value="5.0"/>
								<ScoreDistribution value="0" recordCount="0"/>
								<ScoreDistribution value="1" recordCount="0"/>
								<ScoreDistribution value="2" recordCount="1"/>
							</Node>
							<Node score="1" recordCount="1">
								<True/>
								<ScoreDistribution value="0" recordCount="0"/>
								<ScoreDistribution value="1" recordCount="1"/>
								<ScoreDistribution value="2" recordCount="0"/>
							</Node>
						</Node>
						<Node score="1" recordCount="1">
							<SimplePredicate field="double(petal width (cm))" operator="lessOrEqual" value="1.449999988079071"/>
							<ScoreDistribution value="0" recordCount="0"/>
							<ScoreDistribution value="1" recordCount="1"/>
							<ScoreDistribution value="2" recordCount="0"/>
						</Node>
						<Node>
							<SimplePredicate field="double(petal width (cm))" operator="lessOrEqual" value="1.649999976158142"/>
							<Node score="2" recordCount="1">
								<SimplePredicate field="double(sepal length (cm))" operator="lessOrEqual" value="6.6000001430511475"/>
								<ScoreDistribution value="0" recordCount="0"/>
								<ScoreDistribution value="1" recordCount="0"/>
								<ScoreDistribution value="2" recordCount="1"/>
							</Node>
							<Node score="1" recordCount="1">
								<True/>
								<ScoreDistribution value="0" recordCount="0"/>
								<ScoreDistribution value="1" recordCount="1"/>
								<ScoreDistribution value="2" recordCount="0"/>
							</Node>
						</Node>
						<Node score="2" recordCount="1">
							<True/>
							<ScoreDistribution value="0" recordCount="0"/>
							<ScoreDistribution value="1" recordCount="0"/>
							<ScoreDistribution value="2" recordCount="1"/>
						</Node>
					</Node>
				</TreeModel>
			</Segment>
			<Segment id="7">
				<True/>
				<TreeModel functionName="classification" missingValueStrategy="nullPrediction">
					<MiningSchema>
						<MiningField name="double(petal width (cm))"/>
						<MiningField name="double(petal length (cm))"/>
						<MiningField name="double(sepal length (cm))"/>
						<MiningField name="double(sepal width (cm))"/>
					</MiningSchema>
					<Node>
						<True/>
						<Node>
							<SimplePredicate field="double(sepal length (cm))" operator="lessOrEqual" value="5.549999952316284"/>
							<Node score="0" recordCount="1">
								<SimplePredicate field="double(petal length (cm))" operator="lessOrEqual" value="2.449999988079071"/>
								<ScoreDistribution value="0" recordCount="1"/>
								<ScoreDistribution value="1" recordCount="0"/>
								<ScoreDistribution value="2" recordCount="0"/>
							</Node>
							<Node score="1" recordCount="1">
								<SimplePredicate field="double(petal width (cm))" operator="lessOrEqual" value="1.5"/>
								<ScoreDistribution value="0" recordCount="0"/>
								<ScoreDistribution value="1" recordCount="1"/>
								<ScoreDistribution value="2" recordCount="0"/>
							</Node>
							<Node score="2" recordCount="1">
								<True/>
								<ScoreDistribution value="0" recordCount="0"/>
								<ScoreDistribution value="1" recordCount="0"/>
								<ScoreDistribution value="2" recordCount="1"/>
							</Node>
						</Node>
						<Node>
							<SimplePredicate field="double(petal width (cm))" operator="lessOrEqual" value="1.699999988079071"/>
							<Node>
								<SimplePredicate field="double(sepal width (cm))" operator="lessOrEqual" value="3.9000000953674316"/>
								<Node score="2" recordCount="1">
									<SimplePredicate field="double(sepal width (cm))" operator="lessOrEqual" value="2.25"/>
									<ScoreDistribution value="0" recordCount="0"/>
									<ScoreDistribution value="1" recordCount="0"/>
									<ScoreDistribution value="2" recordCount="1"/>
								</Node>
								<Node score="1" recordCount="1">
									<SimplePredicate field="double(petal length (cm))" operator="lessOrEqual" value="5.0"/>
									<ScoreDistribution value="0" recordCount="0"/>
									<ScoreDistribution value="1" recordCount="1"/>
									<ScoreDistribution value="2" recordCount="0"/>
								</Node>
								<Node score="2" recordCount="1">
									<True/>
									<ScoreDistribution value="0" recordCount="0"/>
									<ScoreDistribution value="1" recordCount="0"/>
									<ScoreDistribution value="2" recordCount="1"/>
								</Node>
							</Node>
							<Node score="0" recordCount="1">
								<True/>
								<ScoreDistribution value="0" recordCount="1"/>
								<ScoreDistribution value="1" recordCount="0"/>
								<ScoreDistribution value="2" recordCount="0"/>
							</Node>
						</Node>
						<Node>
							<SimplePredicate field="double(petal width (cm))" operator="lessOrEqual" value="1.8499999642372131"/>
							<Node score="2" recordCount="1">
								<SimplePredicate field="double(sepal width (cm))" operator="lessOrEqual" value="3.149999976158142"/>
								<ScoreDistribution value="0" recordCount="0"/>
								<ScoreDistribution value="1" recordCount="0"/>
								<ScoreDistribution value="2" recordCount="1"/>
							</Node>
							<Node score="1" recordCount="1">
								<True/>
								<ScoreDistribution value="0" recordCount="0"/>
								<ScoreDistribution value="1" recordCount="1"/>
								<ScoreDistribution value="2" recordCount="0"/>
							</Node>
						</Node>
						<Node score="2" recordCount="1">
							<True/>
							<ScoreDistribution value="0" recordCount="0"/>
							<ScoreDistribution value="1" recordCount="0"/>
							<ScoreDistribution value="2" recordCount="1"/>
						</Node>
					</Node>
				</TreeModel>
			</Segment>
			<Segment id="8">
				<True/>
				<TreeModel functionName="classification" missingValueStrategy="nullPrediction">
					<MiningSchema>
						<MiningField name="double(petal width (cm))"/>
						<MiningField name="double(petal length (cm))"/>
						<MiningField name="double(sepal length (cm))"/>
						<MiningField name="double(sepal width (cm))"/>
					</MiningSchema>
					<Node>
						<True/>
						<Node>
							<SimplePredicate field="double(sepal length (cm))" operator="lessOrEqual" value="5.450000047683716"/>
							<Node score="0" recordCount="1">
								<SimplePredicate field="double(petal width (cm))" operator="lessOrEqual" value="0.75"/>
								<ScoreDistribution value="0" recordCount="1"/>
								<ScoreDistribution value="1" recordCount="0"/>
								<ScoreDistribution value="2" recordCount="0"/>
							</Node>
							<Node score="2" recordCount="1">
								<SimplePredicate field="double(sepal length (cm))" operator="lessOrEqual" value="4.950000047683716"/>
								<ScoreDistribution value="0" recordCount="0"/>
								<ScoreDistribution value="1" recordCount="0"/>
								<ScoreDistribution value="2" recordCount="1"/>
							</Node>
							<Node score="1" recordCount="1">
								<True/>
								<ScoreDistribution value="0" recordCount="0"/>
								<ScoreDistribution value="1" recordCount="1"/>
								<ScoreDistribution value="2" recordCount="0"/>
							</Node>
						</Node>
						<Node>
							<SimplePredicate field="double(petal length (cm))" operator="lessOrEqual" value="4.75"/>
							<Node score="0" recordCount="1">
								<SimplePredicate field="double(petal length (cm))" operator="lessOrEqual" value="2.449999988079071"/>
								<ScoreDistribution value="0" recordCount="1"/>
								<ScoreDistribution value="1" recordCount="0"/>
								<ScoreDistribution value="2" recordCount="0"/>
							</Node>
							<Node score="1" recordCount="1">
								<True/>
								<ScoreDistribution value="0" recordCount="0"/>
								<ScoreDistribution value="1" recordCount="1"/>
								<ScoreDistribution value="2" recordCount="0"/>
							</Node>
						</Node>
						<Node>
							<SimplePredicate field="double(petal width (cm))" operator="lessOrEqual" value="1.699999988079071"/>
							<Node score="2" recordCount="1">
								<SimplePredicate field="double(sepal width (cm))" operator="lessOrEqual" value="2.350000023841858"/>
								<ScoreDistribution value="0" recordCount="0"/>
								<ScoreDistribution value="1" recordCount="0"/>
								<ScoreDistribution value="2" recordCount="1"/>
							</Node>
							<Node score="1" recordCount="1">
								<SimplePredicate field="double(sepal length (cm))" operator="lessOrEqual" value="7.0"/>
								<ScoreDistribution value="0" recordCount="0"/>
								<ScoreDistribution value="1" recordCount="1"/>
								<ScoreDistribution value="2" recordCount="0"/>
							</Node>
							<Node score="2" recordCount="1">
								<True/>
								<ScoreDistribution value="0" recordCount="0"/>
								<ScoreDistribution value="1" recordCount="0"/>
								<ScoreDistribution value="2" recordCount="1"/>
							</Node>
						</Node>
						<Node score="2" recordCount="1">
							<True/>
							<ScoreDistribution value="0" recordCount="0"/>
							<ScoreDistribution value="1" recordCount="0"/>
							<ScoreDistribution value="2" recordCount="1"/>
						</Node>
					</Node>
				</TreeModel>
			</Segment>
			<Segment id="9">
				<True/>
				<TreeModel functionName="classification" missingValueStrategy="nullPrediction">
					<MiningSchema>
						<MiningField name="double(petal width (cm))"/>
						<MiningField name="double(petal length (cm))"/>
						<MiningField name="double(sepal length (cm))"/>
					</MiningSchema>
					<Node>
						<True/>
						<Node>
							<SimplePredicate field="double(sepal length (cm))" operator="lessOrEqual" value="5.450000047683716"/>
							<Node score="0" recordCount="1">
								<SimplePredicate field="double(petal length (cm))" operator="lessOrEqual" value="2.449999988079071"/>
								<ScoreDistribution value="0" recordCount="1"/>
								<ScoreDistribution value="1" recordCount="0"/>
								<ScoreDistribution value="2" recordCount="0"/>
							</Node>
							<Node score="1" recordCount="1">
								<SimplePredicate field="double(petal width (cm))" operator="lessOrEqual" value="1.4000000357627869"/>
								<ScoreDistribution value="0" recordCount="0"/>
								<ScoreDistribution value="1" recordCount="1"/>
								<ScoreDistribution value="2" recordCount="0"/>
							</Node>
							<Node score="2" recordCount="1">
								<True/>
								<ScoreDistribution value="0" recordCount="0"/>
								<ScoreDistribution value="1" recordCount="0"/>
								<ScoreDistribution value="2" recordCount="1"/>
							</Node>
						</Node>
						<Node>
							<SimplePredicate field="double(petal length (cm))" operator="lessOrEqual" value="5.0"/>
							<Node>
								<SimplePredicate field="double(petal width (cm))" operator="lessOrEqual" value="1.699999988079071"/>
								<Node score="0" recordCount="1">
									<SimplePredicate field="double(petal length (cm))" operator="lessOrEqual" value="2.4999999403953552"/>
									<ScoreDistribution value="0" recordCount="1"/>
									<ScoreDistribution value="1" recordCount="0"/>
									<ScoreDistribution value="2" recordCount="0"/>
								</Node>
								<Node score="1" recordCount="1">
									<True/>
									<ScoreDistribution value="0" recordCount="0"/>
									<ScoreDistribution value="1" recordCount="1"/>
									<ScoreDistribution value="2" recordCount="0"/>
								</Node>
							</Node>
							<Node score="2" recordCount="1">
								<SimplePredicate field="double(sepal length (cm))" operator="lessOrEqual" value="5.75"/>
								<ScoreDistribution value="0" recordCount="0"/>
								<ScoreDistribution value="1" recordCount="0"/>
								<ScoreDistribution value="2" recordCount="1"/>
							</Node>
							<Node score="1" recordCount="1">
								<SimplePredicate field="double(sepal length (cm))" operator="lessOrEqual" value="6.049999952316284"/>
								<ScoreDistribution value="0" recordCount="0"/>
								<ScoreDistribution value="1" recordCount="1"/>
								<ScoreDistribution value="2" recordCount="0"/>
							</Node>
							<Node score="2" recordCount="1">
								<True/>
								<ScoreDistribution value="0" recordCount="0"/>
								<ScoreDistribution value="1" recordCount="0"/>
								<ScoreDistribution value="2" recordCount="1"/>
							</Node>
						</Node>
						<Node score="2" recordCount="1">
							<True/>
							<ScoreDistribution value="0" recordCount="0"/>
							<ScoreDistribution value="1" recordCount="0"/>
							<ScoreDistribution value="2" recordCount="1"/>
						</Node>
					</Node>
				</TreeModel>
			</Segment>
			<Segment id="10">
				<True/>
				<TreeModel functionName="classification" missingValueStrategy="nullPrediction">
					<MiningSchema>
						<MiningField name="double(petal width (cm))"/>
						<MiningField name="double(petal length (cm))"/>
					</MiningSchema>
					<Node>
						<True/>
						<Node score="0" recordCount="1">
							<SimplePredicate field="double(petal width (cm))" operator="lessOrEqual" value="0.800000011920929"/>
							<ScoreDistribution value="0" recordCount="1"/>
							<ScoreDistribution value="1" recordCount="0"/>
							<ScoreDistribution value="2" recordCount="0"/>
						</Node>
						<Node>
							<SimplePredicate field="double(petal width (cm))" operator="lessOrEqual" value="1.699999988079071"/>
							<Node score="1" recordCount="1">
								<SimplePredicate field="double(petal length (cm))" operator="lessOrEqual" value="4.900000095367432"/>
								<ScoreDistribution value="0" recordCount="0"/>
								<ScoreDistribution value="1" recordCount="1"/>
								<ScoreDistribution value="2" recordCount="0"/>
							</Node>
							<Node score="2" recordCount="1">
								<SimplePredicate field="double(petal length (cm))" operator="lessOrEqual" value="5.049999952316284"/>
								<ScoreDistribution value="0" recordCount="0"/>
								<ScoreDistribution value="1" recordCount="0"/>
								<ScoreDistribution value="2" recordCount="1"/>
							</Node>
							<Node score="2" recordCount="1">
								<SimplePredicate field="double(petal width (cm))" operator="lessOrEqual" value="1.550000011920929"/>
								<ScoreDistribution value="0" recordCount="0"/>
								<ScoreDistribution value="1" recordCount="0"/>
								<ScoreDistribution value="2" recordCount="1"/>
							</Node>
							<Node score="1" recordCount="1">
								<True/>
								<ScoreDistribution value="0" recordCount="0"/>
								<ScoreDistribution value="1" recordCount="1"/>
								<ScoreDistribution value="2" recordCount="0"/>
							</Node>
						</Node>
						<Node score="2" recordCount="1">
							<True/>
							<ScoreDistribution value="0" recordCount="0"/>
							<ScoreDistribution value="1" recordCount="0"/>
							<ScoreDistribution value="2" recordCount="1"/>
						</Node>
					</Node>
				</TreeModel>
			</Segment>
			<Segment id="11">
				<True/>
				<TreeModel functionName="classification" missingValueStrategy="nullPrediction">
					<MiningSchema>
						<MiningField name="double(petal width (cm))"/>
						<MiningField name="double(petal length (cm))"/>
						<MiningField name="double(sepal width (cm))"/>
					</MiningSchema>
					<Node>
						<True/>
						<Node score="0" recordCount="1">
							<SimplePredicate field="double(petal length (cm))" operator="lessOrEqual" value="2.449999988079071"/>
							<ScoreDistribution value="0" recordCount="1"/>
							<ScoreDistribution value="1" recordCount="0"/>
							<ScoreDistribution value="2" recordCount="0"/>
						</Node>
						<Node>
							<SimplePredicate field="double(petal width (cm))" operator="lessOrEqual" value="1.6500000357627869"/>
							<Node score="1" recordCount="1">
								<SimplePredicate field="double(petal width (cm))" operator="lessOrEqual" value="1.449999988079071"/>
								<ScoreDistribution value="0" recordCount="0"/>
								<ScoreDistribution value="1" recordCount="1"/>
								<ScoreDistribution value="2" recordCount="0"/>
							</Node>
							<Node score="1" recordCount="1">
								<SimplePredicate field="double(petal length (cm))" operator="lessOrEqual" value="4.8999998569488525"/>
								<ScoreDistribution value="0" recordCount="0"/>
								<ScoreDistribution value="1" recordCount="1"/>
								<ScoreDistribution value="2" recordCount="0"/>
							</Node>
							<Node score="1" recordCount="1">
								<SimplePredicate field="double(sepal width (cm))" operator="lessOrEqual" value="2.75"/>
								<ScoreDistribution value="0" recordCount="0"/>
								<ScoreDistribution value="1" recordCount="1"/>
								<ScoreDistribution value="2" recordCount="0"/>
							</Node>
							<Node score="2" recordCount="1">
								<True/>
								<ScoreDistribution value="0" recordCount="0"/>
								<ScoreDistribution value="1" recordCount="0"/>
								<ScoreDistribution value="2" recordCount="1"/>
							</Node>
						</Node>
						<Node>
							<SimplePredicate field="double(petal length (cm))" operator="lessOrEqual" value="4.8500001430511475"/>
							<Node score="2" recordCount="1">
								<SimplePredicate field="double(sepal width (cm))" operator="lessOrEqual" value="3.0"/>
								<ScoreDistribution value="0" recordCount="0"/>
								<ScoreDistribution value="1" recordCount="0"/>
								<ScoreDistribution value="2" recordCount="1"/>
							</Node>
							<Node score="1" recordCount="1">
								<True/>
								<ScoreDistribution value="0" recordCount="0"/>
								<ScoreDistribution value="1" recordCount="1"/>
								<ScoreDistribution value="2" recordCount="0"/>
							</Node>
						</Node>
						<Node score="2" recordCount="1">
							<True/>
							<ScoreDistribution value="0" recordCount="0"/>
							<ScoreDistribution value="1" recordCount="0"/>
							<ScoreDistribution value="2" recordCount="1"/>
						</Node>
					</Node>
				</TreeModel>
			</Segment>
			<Segment id="12">
				<True/>
				<TreeModel functionName="classification" missingValueStrategy="nullPrediction">
					<MiningSchema>
						<MiningField name="double(petal width (cm))"/>
						<MiningField name="double(petal length (cm))"/>
						<MiningField name="double(sepal length (cm))"/>
					</MiningSchema>
					<Node>
						<True/>
						<Node score="0" recordCount="1">
							<SimplePredicate field="double(petal width (cm))" operator="lessOrEqual" value="0.75"/>
							<ScoreDistribution value="0" recordCount="1"/>
							<ScoreDistribution value="1" recordCount="0"/>
							<ScoreDistribution value="2" recordCount="0"/>
						</Node>
						<Node>
							<SimplePredicate field="double(petal width (cm))" operator="lessOrEqual" value="1.6500000357627869"/>
							<Node score="1" recordCount="1">
								<SimplePredicate field="double(petal width (cm))" operator="lessOrEqual" value="1.449999988079071"/>
								<ScoreDistribution value="0" recordCount="0"/>
								<ScoreDistribution value="1" recordCount="1"/>
								<ScoreDistribution value="2" recordCount="0"/>
							</Node>
							<Node>
								<SimplePredicate field="double(sepal length (cm))" operator="lessOrEqual" value="6.099999904632568"/>
								<Node score="2" recordCount="1">
									<SimplePredicate field="double(petal length (cm))" operator="lessOrEqual" value="5.049999952316284"/>
									<ScoreDistribution value="0" recordCount="0"/>
									<ScoreDistribution value="1" recordCount="0"/>
									<ScoreDistribution value="2" recordCount="1"/>
								</Node>
								<Node score="1" recordCount="1">
									<True/>
									<ScoreDistribution value="0" recordCount="0"/>
									<ScoreDistribution value="1" recordCount="1"/>
									<ScoreDistribution value="2" recordCount="0"/>
								</Node>
							</Node>
							<Node score="1" recordCount="1">
								<True/>
								<ScoreDistribution value="0" recordCount="0"/>
								<ScoreDistribution value="1" recordCount="1"/>
								<ScoreDistribution value="2" recordCount="0"/>
							</Node>
						</Node>
						<Node score="2" recordCount="1">
							<True/>
							<ScoreDistribution value="0" recordCount="0"/>
							<ScoreDistribution value="1" recordCount="0"/>
							<ScoreDistribution value="2" recordCount="1"/>
						</Node>
					</Node>
				</TreeModel>
			</Segment>
			<Segment id="13">
				<True/>
				<TreeModel functionName="classification" missingValueStrategy="nullPrediction">
					<MiningSchema>
						<MiningField name="double(petal length (cm))"/>
						<MiningField name="double(sepal length (cm))"/>
					</MiningSchema>
					<Node>
						<True/>
						<Node score="0" recordCount="1">
							<SimplePredicate field="double(petal length (cm))" operator="lessOrEqual" value="2.699999988079071"/>
							<ScoreDistribution value="0" recordCount="1"/>
							<ScoreDistribution value="1" recordCount="0"/>
							<ScoreDistribution value="2" recordCount="0"/>
						</Node>
						<Node>
							<SimplePredicate field="double(petal length (cm))" operator="lessOrEqual" value="4.8500001430511475"/>
							<Node score="2" recordCount="1">
								<SimplePredicate field="double(sepal length (cm))" operator="lessOrEqual" value="4.950000047683716"/>
								<ScoreDistribution value="0" recordCount="0"/>
								<ScoreDistribution value="1" recordCount="0"/>
								<ScoreDistribution value="2" recordCount="1"/>
							</Node>
							<Node score="1" recordCount="1">
								<True/>
								<ScoreDistribution value="0" recordCount="0"/>
								<ScoreDistribution value="1" recordCount="1"/>
								<ScoreDistribution value="2" recordCount="0"/>
							</Node>
						</Node>
						<Node score="2" recordCount="1">
							<True/>
							<ScoreDistribution value="0" recordCount="0"/>
							<ScoreDistribution value="1" recordCount="0"/>
							<ScoreDistribution value="2" recordCount="1"/>
						</Node>
					</Node>
				</TreeModel>
			</Segment>
			<Segment id="14">
				<True/>
				<TreeModel functionName="classification" missingValueStrategy="nullPrediction">
					<MiningSchema>
						<MiningField name="double(petal width (cm))"/>
						<MiningField name="double(petal length (cm))"/>
						<MiningField name="double(sepal length (cm))"/>
					</MiningSchema>
					<Node>
						<True/>
						<Node>
							<SimplePredicate field="double(petal width (cm))" operator="lessOrEqual" value="1.6500000357627869"/>
							<Node>
								<SimplePredicate field="double(sepal length (cm))" operator="lessOrEqual" value="5.450000047683716"/>
								<Node score="0" recordCount="1">
									<SimplePredicate field="double(petal length (cm))" operator="lessOrEqual" value="2.699999988079071"/>
									<ScoreDistribution value="0" recordCount="1"/>
									<ScoreDistribution value="1" recordCount="0"/>
									<ScoreDistribution value="2" recordCount="0"/>
								</Node>
								<Node score="1" recordCount="1">
									<True/>
									<ScoreDistribution value="0" recordCount="0"/>
									<ScoreDistribution value="1" recordCount="1"/>
									<ScoreDistribution value="2" recordCount="0"/>
								</Node>
							</Node>
							<Node score="1" recordCount="1">
								<SimplePredicate field="double(petal width (cm))" operator="lessOrEqual" value="1.449999988079071"/>
								<ScoreDistribution value="0" recordCount="0"/>
								<ScoreDistribution value="1" recordCount="1"/>
								<ScoreDistribution value="2" recordCount="0"/>
							</Node>
							<Node score="1" recordCount="1">
								<SimplePredicate field="double(petal length (cm))" operator="lessOrEqual" value="4.799999952316284"/>
								<ScoreDistribution value="0" recordCount="0"/>
								<ScoreDistribution value="1" recordCount="1"/>
								<ScoreDistribution value="2" recordCount="0"/>
							</Node>
							<Node score="2" recordCount="1">
								<SimplePredicate field="double(petal length (cm))" operator="lessOrEqual" value="5.049999952316284"/>
								<ScoreDistribution value="0" recordCount="0"/>
								<ScoreDistribution value="1" recordCount="0"/>
								<ScoreDistribution value="2" recordCount="1"/>
							</Node>
							<Node score="2" recordCount="1">
								<SimplePredicate field="double(petal width (cm))" operator="lessOrEqual" value="1.550000011920929"/>
								<ScoreDistribution value="0" recordCount="0"/>
								<ScoreDistribution value="1" recordCount="0"/>
								<ScoreDistribution value="2" recordCount="1"/>
							</Node>
							<Node score="1" recordCount="1">
								<True/>
								<ScoreDistribution value="0" recordCount="0"/>
								<ScoreDistribution value="1" recordCount="1"/>
								<ScoreDistribution value="2" recordCount="0"/>
							</Node>
						</Node>
						<Node score="2" recordCount="1">
							<True/>
							<ScoreDistribution value="0" recordCount="0"/>
							<ScoreDistribution value="1" recordCount="0"/>
							<ScoreDistribution value="2" recordCount="1"/>
						</Node>
					</Node>
				</TreeModel>
			</Segment>
			<Segment id="15">
				<True/>
				<TreeModel functionName="classification" missingValueStrategy="nullPrediction">
					<MiningSchema>
						<MiningField name="double(petal width (cm))"/>
						<MiningField name="double(sepal length (cm))"/>
						<MiningField name="double(sepal width (cm))"/>
					</MiningSchema>
					<Node>
						<True/>
						<Node score="0" recordCount="1">
							<SimplePredicate field="double(petal width (cm))" operator="lessOrEqual" value="0.75"/>
							<ScoreDistribution value="0" recordCount="1"/>
							<ScoreDistribution value="1" recordCount="0"/>
							<ScoreDistribution value="2" recordCount="0"/>
						</Node>
						<Node>
							<SimplePredicate field="double(sepal length (cm))" operator="lessOrEqual" value="6.1499998569488525"/>
							<Node score="1" recordCount="1">
								<SimplePredicate field="double(petal width (cm))" operator="lessOrEqual" value="1.699999988079071"/>
								<ScoreDistribution value="0" recordCount="0"/>
								<ScoreDistribution value="1" recordCount="1"/>
								<ScoreDistribution value="2" recordCount="0"/>
							</Node>
							<Node score="2" recordCount="1">
								<SimplePredicate field="double(sepal width (cm))" operator="lessOrEqual" value="3.100000023841858"/>
								<ScoreDistribution value="0" recordCount="0"/>
								<ScoreDistribution value="1" recordCount="0"/>
								<ScoreDistribution value="2" recordCount="1"/>
							</Node>
							<Node score="1" recordCount="1">
								<True/>
								<ScoreDistribution value="0" recordCount="0"/>
								<ScoreDistribution value="1" recordCount="1"/>
								<ScoreDistribution value="2" recordCount="0"/>
							</Node>
						</Node>
						<Node score="1" recordCount="1">
							<SimplePredicate field="double(petal width (cm))" operator="lessOrEqual" value="1.550000011920929"/>
							<ScoreDistribution value="0" recordCount="0"/>
							<ScoreDistribution value="1" recordCount="1"/>
							<ScoreDistribution value="2" recordCount="0"/>
						</Node>
						<Node score="2" recordCount="1">
							<True/>
							<ScoreDistribution value="0" recordCount="0"/>
							<ScoreDistribution value="1" recordCount="0"/>
							<ScoreDistribution value="2" recordCount="1"/>
						</Node>
					</Node>
				</TreeModel>
			</Segment>
			<Segment id="16">
				<True/>
				<TreeModel functionName="classification" missingValueStrategy="nullPrediction">
					<MiningSchema>
						<MiningField name="double(petal width (cm))"/>
						<MiningField name="double(petal length (cm))"/>
						<MiningField name="double(sepal length (cm))"/>
					</MiningSchema>
					<Node>
						<True/>
						<Node>
							<SimplePredicate field="double(petal length (cm))" operator="lessOrEqual" value="4.75"/>
							<Node score="0" recordCount="1">
								<SimplePredicate field="double(petal width (cm))" operator="lessOrEqual" value="0.75"/>
								<ScoreDistribution value="0" recordCount="1"/>
								<ScoreDistribution value="1" recordCount="0"/>
								<ScoreDistribution value="2" recordCount="0"/>
							</Node>
							<Node score="2" recordCount="1">
								<SimplePredicate field="double(sepal length (cm))" operator="lessOrEqual" value="4.950000047683716"/>
								<ScoreDistribution value="0" recordCount="0"/>
								<ScoreDistribution value="1" recordCount="0"/>
								<ScoreDistribution value="2" recordCount="1"/>
							</Node>
							<Node score="1" recordCount="1">
								<True/>
								<ScoreDistribution value="0" recordCount="0"/>
								<ScoreDistribution value="1" recordCount="1"/>
								<ScoreDistribution value="2" recordCount="0"/>
							</Node>
						</Node>
						<Node score="1" recordCount="1">
							<SimplePredicate field="double(petal width (cm))" operator="lessOrEqual" value="1.449999988079071"/>
							<ScoreDistribution value="0" recordCount="0"/>
							<ScoreDistribution value="1" recordCount="1"/>
							<ScoreDistribution value="2" recordCount="0"/>
						</Node>
						<Node>
							<SimplePredicate field="double(petal length (cm))" operator="lessOrEqual" value="4.8500001430511475"/>
							<Node score="1" recordCount="1">
								<SimplePredicate field="double(sepal length (cm))" operator="lessOrEqual" value="6.049999952316284"/>
								<ScoreDistribution value="0" recordCount="0"/>
								<ScoreDistribution value="1" recordCount="1"/>
								<ScoreDistribution value="2" recordCount="0"/>
							</Node>
							<Node score="2" recordCount="1">
								<True/>
								<ScoreDistribution value="0" recordCount="0"/>
								<ScoreDistribution value="1" recordCount="0"/>
								<ScoreDistribution value="2" recordCount="1"/>
							</Node>
						</Node>
						<Node score="2" recordCount="1">
							<True/>
							<ScoreDistribution value="0" recordCount="0"/>
							<ScoreDistribution value="1" recordCount="0"/>
							<ScoreDistribution value="2" recordCount="1"/>
						</Node>
					</Node>
				</TreeModel>
			</Segment>
			<Segment id="17">
				<True/>
				<TreeModel functionName="classification" missingValueStrategy="nullPrediction">
					<MiningSchema>
						<MiningField name="double(petal width (cm))"/>
						<MiningField name="double(petal length (cm))"/>
						<MiningField name="double(sepal length (cm))"/>
						<MiningField name="double(sepal width (cm))"/>
					</MiningSchema>
					<Node>
						<True/>
						<Node>
							<SimplePredicate field="double(sepal length (cm))" operator="lessOrEqual" value="5.450000047683716"/>
							<Node score="0" recordCount="1">
								<SimplePredicate field="double(petal width (cm))" operator="lessOrEqual" value="0.8999999910593033"/>
								<ScoreDistribution value="0" recordCount="1"/>
								<ScoreDistribution value="1" recordCount="0"/>
								<ScoreDistribution value="2" recordCount="0"/>
							</Node>
							<Node score="2" recordCount="1">
								<SimplePredicate field="double(sepal length (cm))" operator="lessOrEqual" value="5.049999952316284"/>
								<ScoreDistribution value="0" recordCount="0"/>
								<ScoreDistribution value="1" recordCount="0"/>
								<ScoreDistribution value="2" recordCount="1"/>
							</Node>
							<Node score="1" recordCount="1">
								<True/>
								<ScoreDistribution value="0" recordCount="0"/>
								<ScoreDistribution value="1" recordCount="1"/>
								<ScoreDistribution value="2" recordCount="0"/>
							</Node>
						</Node>
						<Node>
							<SimplePredicate field="double(sepal length (cm))" operator="lessOrEqual" value="7.049999952316284"/>
							<Node>
								<SimplePredicate field="double(petal width (cm))" operator="lessOrEqual" value="1.699999988079071"/>
								<Node>
									<SimplePredicate field="double(petal length (cm))" operator="lessOrEqual" value="4.950000047683716"/>
									<Node score="1" recordCount="1">
										<SimplePredicate field="double(sepal width (cm))" operator="lessOrEqual" value="3.450000047683716"/>
										<ScoreDistribution value="0" recordCount="0"/>
										<ScoreDistribution value="1" recordCount="1"/>
										<ScoreDistribution value="2" recordCount="0"/>
									</Node>
									<Node score="0" recordCount="1">
										<True/>
										<ScoreDistribution value="0" recordCount="1"/>
										<ScoreDistribution value="1" recordCount="0"/>
										<ScoreDistribution value="2" recordCount="0"/>
									</Node>
								</Node>
								<Node score="2" recordCount="1">
									<SimplePredicate field="double(petal length (cm))" operator="lessOrEqual" value="5.049999952316284"/>
									<ScoreDistribution value="0" recordCount="0"/>
									<ScoreDistribution value="1" recordCount="0"/>
									<ScoreDistribution value="2" recordCount="1"/>
								</Node>
								<Node score="1" recordCount="1">
									<SimplePredicate field="double(sepal length (cm))" operator="lessOrEqual" value="6.150000095367432"/>
									<ScoreDistribution value="0" recordCount="0"/>
									<ScoreDistribution value="1" recordCount="1"/>
									<ScoreDistribution value="2" recordCount="0"/>
								</Node>
								<Node score="2" recordCount="1">
									<True/>
									<ScoreDistribution value="0" recordCount="0"/>
									<ScoreDistribution value="1" recordCount="0"/>
									<ScoreDistribution value="2" recordCount="1"/>
								</Node>
							</Node>
							<Node score="1" recordCount="1">
								<SimplePredicate field="double(petal length (cm))" operator="lessOrEqual" value="4.8500001430511475"/>
								<ScoreDistribution value="0" recordCount="0"/>
								<ScoreDistribution value="1" recordCount="1"/>
								<ScoreDistribution value="2" recordCount="0"/>
							</Node>
							<Node score="2" recordCount="1">
								<True/>
								<ScoreDistribution value="0" recordCount="0"/>
								<ScoreDistribution value="1" recordCount="0"/>
								<ScoreDistribution value="2" recordCount="1"/>
							</Node>
						</Node>
						<Node score="2" recordCount="1">
							<True/>
							<ScoreDistribution value="0" recordCount="0"/>
							<ScoreDistribution value="1" recordCount="0"/>
							<ScoreDistribution value="2" recordCount="1"/>
						</Node>
					</Node>
				</TreeModel>
			</Segment>
			<Segment id="18">
				<True/>
				<TreeModel functionName="classification" missingValueStrategy="nullPrediction">
					<MiningSchema>
						<MiningField name="double(petal width (cm))"/>
						<MiningField name="double(petal length (cm))"/>
						<MiningField name="double(sepal length (cm))"/>
					</MiningSchema>
					<Node>
						<True/>
						<Node score="0" recordCount="1">
							<SimplePredicate field="double(petal length (cm))" operator="lessOrEqual" value="2.350000023841858"/>
							<ScoreDistribution value="0" recordCount="1"/>
							<ScoreDistribution value="1" recordCount="0"/>
							<ScoreDistribution value="2" recordCount="0"/>
						</Node>
						<Node>
							<SimplePredicate field="double(petal length (cm))" operator="lessOrEqual" value="4.950000047683716"/>
							<Node score="1" recordCount="1">
								<SimplePredicate field="double(petal width (cm))" operator="lessOrEqual" value="1.6500000357627869"/>
								<ScoreDistribution value="0" recordCount="0"/>
								<ScoreDistribution value="1" recordCount="1"/>
								<ScoreDistribution value="2" recordCount="0"/>
							</Node>
							<Node>
								<SimplePredicate field="double(sepal length (cm))" operator="lessOrEqual" value="6.049999952316284"/>
								<Node score="2" recordCount="1">
									<SimplePredicate field="double(petal length (cm))" operator="lessOrEqual" value="4.650000095367432"/>
									<ScoreDistribution value="0" recordCount="0"/>
									<ScoreDistribution value="1" recordCount="0"/>
									<ScoreDistribution value="2" recordCount="1"/>
								</Node>
								<Node score="1" recordCount="1">
									<True/>
									<ScoreDistribution value="0" recordCount="0"/>
									<ScoreDistribution value="1" recordCount="1"/>
									<ScoreDistribution value="2" recordCount="0"/>
								</Node>
							</Node>
							<Node score="2" recordCount="1">
								<True/>
								<ScoreDistribution value="0" recordCount="0"/>
								<ScoreDistribution value="1" recordCount="0"/>
								<ScoreDistribution value="2" recordCount="1"/>
							</Node>
						</Node>
						<Node score="2" recordCount="1">
							<True/>
							<ScoreDistribution value="0" recordCount="0"/>
							<ScoreDistribution value="1" recordCount="0"/>
							<ScoreDistribution value="2" recordCount="1"/>
						</Node>
					</Node>
				</TreeModel>
			</Segment>
			<Segment id="19">
				<True/>
				<TreeModel functionName="classification" missingValueStrategy="nullPrediction">
					<MiningSchema>
						<MiningField name="double(petal width (cm))"/>
						<MiningField name="double(petal length (cm))"/>
						<MiningField name="double(sepal length (cm))"/>
						<MiningField name="double(sepal width (cm))"/>
					</MiningSchema>
					<Node>
						<True/>
						<Node score="0" recordCount="1">
							<SimplePredicate field="double(petal length (cm))" operator="lessOrEqual" value="2.449999988079071"/>
							<ScoreDistribution value="0" recordCount="1"/>
							<ScoreDistribution value="1" recordCount="0"/>
							<ScoreDistribution value="2" recordCount="0"/>
						</Node>
						<Node>
							<SimplePredicate field="double(petal length (cm))" operator="lessOrEqual" value="4.950000047683716"/>
							<Node>
								<SimplePredicate field="double(petal length (cm))" operator="lessOrEqual" value="4.700000047683716"/>
								<Node score="1" recordCount="1">
									<SimplePredicate field="double(petal width (cm))" operator="lessOrEqual" value="1.6500000357627869"/>
									<ScoreDistribution value="0" recordCount="0"/>
									<ScoreDistribution value="1" recordCount="1"/>
									<ScoreDistribution value="2" recordCount="0"/>
								</Node>
								<Node score="2" recordCount="1">
									<True/>
									<ScoreDistribution value="0" recordCount="0"/>
									<ScoreDistribution value="1" recordCount="0"/>
									<ScoreDistribution value="2" recordCount="1"/>
								</Node>
							</Node>
							<Node>
								<SimplePredicate field="double(sepal length (cm))" operator="lessOrEqual" value="6.25"/>
								<Node score="2" recordCount="1">
									<SimplePredicate field="double(sepal width (cm))" operator="lessOrEqual" value="3.0"/>
									<ScoreDistribution value="0" recordCount="0"/>
									<ScoreDistribution value="1" recordCount="0"/>
									<ScoreDistribution value="2" recordCount="1"/>
								</Node>
								<Node score="1" recordCount="1">
									<True/>
									<ScoreDistribution value="0" recordCount="0"/>
									<ScoreDistribution value="1" recordCount="1"/>
									<ScoreDistribution value="2" recordCount="0"/>
								</Node>
							</Node>
							<Node score="1" recordCount="1">
								<True/>
								<ScoreDistribution value="0" recordCount="0"/>
								<ScoreDistribution value="1" recordCount="1"/>
								<ScoreDistribution value="2" recordCount="0"/>
							</Node>
						</Node>
						<Node>
							<SimplePredicate field="double(petal width (cm))" operator="lessOrEqual" value="1.699999988079071"/>
							<Node score="2" recordCount="1">
								<SimplePredicate field="double(sepal width (cm))" operator="lessOrEqual" value="2.450000047683716"/>
								<ScoreDistribution value="0" recordCount="0"/>
								<ScoreDistribution value="1" recordCount="0"/>
								<ScoreDistribution value="2" recordCount="1"/>
							</Node>
							<Node score="1" recordCount="1">
								<True/>
								<ScoreDistribution value="0" recordCount="0"/>
								<ScoreDistribution value="1" recordCount="1"/>
								<ScoreDistribution value="2" recordCount="0"/>
							</Node>
						</Node>
						<Node score="2" recordCount="1">
							<True/>
							<ScoreDistribution value="0" recordCount="0"/>
							<ScoreDistribution value="1" recordCount="0"/>
							<ScoreDistribution value="2" recordCount="1"/>
						</Node>
					</Node>
				</TreeModel>
			</Segment>
			<Segment id="20">
				<True/>
				<TreeModel functionName="classification" missingValueStrategy="nullPrediction">
					<MiningSchema>
						<MiningField name="double(petal width (cm))"/>
						<MiningField name="double(petal length (cm))"/>
						<MiningField name="double(sepal width (cm))"/>
					</MiningSchema>
					<Node>
						<True/>
						<Node score="0" recordCount="1">
							<SimplePredicate field="double(petal length (cm))" operator="lessOrEqual" value="2.449999988079071"/>
							<ScoreDistribution value="0" recordCount="1"/>
							<ScoreDistribution value="1" recordCount="0"/>
							<ScoreDistribution value="2" recordCount="0"/>
						</Node>
						<Node>
							<SimplePredicate field="double(petal width (cm))" operator="lessOrEqual" value="1.550000011920929"/>
							<Node>
								<SimplePredicate field="double(sepal width (cm))" operator="lessOrEqual" value="2.25"/>
								<Node score="1" recordCount="1">
									<SimplePredicate field="double(petal length (cm))" operator="lessOrEqual" value="4.75"/>
									<ScoreDistribution value="0" recordCount="0"/>
									<ScoreDistribution value="1" recordCount="1"/>
									<ScoreDistribution value="2" recordCount="0"/>
								</Node>
								<Node score="2" recordCount="1">
									<True/>
									<ScoreDistribution value="0" recordCount="0"/>
									<ScoreDistribution value="1" recordCount="0"/>
									<ScoreDistribution value="2" recordCount="1"/>
								</Node>
							</Node>
							<Node score="1" recordCount="1">
								<True/>
								<ScoreDistribution value="0" recordCount="0"/>
								<ScoreDistribution value="1" recordCount="1"/>
								<ScoreDistribution value="2" recordCount="0"/>
							</Node>
						</Node>
						<Node>
							<SimplePredicate field="double(petal width (cm))" operator="lessOrEqual" value="1.8499999642372131"/>
							<Node>
								<SimplePredicate field="double(petal length (cm))" operator="lessOrEqual" value="5.450000047683716"/>
								<Node>
									<SimplePredicate field="double(sepal width (cm))" operator="lessOrEqual" value="3.0"/>
									<Node score="2" recordCount="1">
										<SimplePredicate field="double(petal length (cm))" operator="lessOrEqual" value="5.0"/>
										<ScoreDistribution value="0" recordCount="0"/>
										<ScoreDistribution value="1" recordCount="0"/>
										<ScoreDistribution value="2" recordCount="1"/>
									</Node>
									<Node score="1" recordCount="1">
										<True/>
										<ScoreDistribution value="0" recordCount="0"/>
										<ScoreDistribution value="1" recordCount="1"/>
										<ScoreDistribution value="2" recordCount="0"/>
									</Node>
								</Node>
								<Node score="1" recordCount="1">
									<True/>
									<ScoreDistribution value="0" recordCount="0"/>
									<ScoreDistribution value="1" recordCount="1"/>
									<ScoreDistribution value="2" recordCount="0"/>
								</Node>
							</Node>
							<Node score="2" recordCount="1">
								<True/>
								<ScoreDistribution value="0" recordCount="0"/>
								<ScoreDistribution value="1" recordCount="0"/>
								<ScoreDistribution value="2" recordCount="1"/>
							</Node>
						</Node>
						<Node score="2" recordCount="1">
							<True/>
							<ScoreDistribution value="0" recordCount="0"/>
							<ScoreDistribution value="1" recordCount="0"/>
							<ScoreDistribution value="2" recordCount="1"/>
						</Node>
					</Node>
				</TreeModel>
			</Segment>
			<Segment id="21">
				<True/>
				<TreeModel functionName="classification" missingValueStrategy="nullPrediction">
					<MiningSchema>
						<MiningField name="double(petal width (cm))"/>
						<MiningField name="double(petal length (cm))"/>
						<MiningField name="double(sepal length (cm))"/>
						<MiningField name="double(sepal width (cm))"/>
					</MiningSchema>
					<Node>
						<True/>
						<Node score="0" recordCount="1">
							<SimplePredicate field="double(petal width (cm))" operator="lessOrEqual" value="0.75"/>
							<ScoreDistribution value="0" recordCount="1"/>
							<ScoreDistribution value="1" recordCount="0"/>
							<ScoreDistribution value="2" recordCount="0"/>
						</Node>
						<Node>
							<SimplePredicate field="double(petal length (cm))" operator="lessOrEqual" value="4.8500001430511475"/>
							<Node score="1" recordCount="1">
								<SimplePredicate field="double(petal length (cm))" operator="lessOrEqual" value="4.75"/>
								<ScoreDistribution value="0" recordCount="0"/>
								<ScoreDistribution value="1" recordCount="1"/>
								<ScoreDistribution value="2" recordCount="0"/>
							</Node>
							<Node score="1" recordCount="1">
								<SimplePredicate field="double(petal width (cm))" operator="lessOrEqual" value="1.5999999642372131"/>
								<ScoreDistribution value="0" recordCount="0"/>
								<ScoreDistribution value="1" recordCount="1"/>
								<ScoreDistribution value="2" recordCount="0"/>
							</Node>
							<Node score="1" recordCount="1">
								<SimplePredicate field="double(sepal length (cm))" operator="lessOrEqual" value="6.049999952316284"/>
								<ScoreDistribution value="0" recordCount="0"/>
								<ScoreDistribution value="1" recordCount="1"/>
								<ScoreDistribution value="2" recordCount="0"/>
							</Node>
							<Node score="2" recordCount="1">
								<True/>
								<ScoreDistribution value="0" recordCount="0"/>
								<ScoreDistribution value="1" recordCount="0"/>
								<ScoreDistribution value="2" recordCount="1"/>
							</Node>
						</Node>
						<Node>
							<SimplePredicate field="double(sepal width (cm))" operator="lessOrEqual" value="2.549999952316284"/>
							<Node score="1" recordCount="1">
								<SimplePredicate field="double(petal length (cm))" operator="lessOrEqual" value="5.3500001430511475"/>
								<ScoreDistribution value="0" recordCount="0"/>
								<ScoreDistribution value="1" recordCount="1"/>
								<ScoreDistribution value="2" recordCount="0"/>
							</Node>
							<Node score="2" recordCount="1">
								<True/>
								<ScoreDistribution value="0" recordCount="0"/>
								<ScoreDistribution value="1" recordCount="0"/>
								<ScoreDistribution value="2" recordCount="1"/>
							</Node>
						</Node>
						<Node>
							<SimplePredicate field="double(sepal length (cm))" operator="lessOrEqual" value="6.099999904632568"/>
							<Node score="1" recordCount="1">
								<SimplePredicate field="double(petal width (cm))" operator="lessOrEqual" value="1.699999988079071"/>
								<ScoreDistribution value="0" recordCount="0"/>
								<ScoreDistribution value="1" recordCount="1"/>
								<ScoreDistribution value="2" recordCount="0"/>
							</Node>
							<Node score="2" recordCount="1">
								<True/>
								<ScoreDistribution value="0" recordCount="0"/>
								<ScoreDistribution value="1" recordCount="0"/>
								<ScoreDistribution value="2" recordCount="1"/>
							</Node>
						</Node>
						<Node>
							<SimplePredicate field="double(petal width (cm))" operator="lessOrEqual" value="1.550000011920929"/>
							<Node score="1" recordCount="1">
								<SimplePredicate field="double(petal length (cm))" operator="lessOrEqual" value="5.0"/>
								<ScoreDistribution value="0" recordCount="0"/>
								<ScoreDistribution value="1" recordCount="1"/>
								<ScoreDistribution value="2" recordCount="0"/>
							</Node>
							<Node score="2" recordCount="1">
								<True/>
								<ScoreDistribution value="0" recordCount="0"/>
								<ScoreDistribution value="1" recordCount="0"/>
								<ScoreDistribution value="2" recordCount="1"/>
							</Node>
						</Node>
						<Node score="2" recordCount="1">
							<True/>
							<ScoreDistribution value="0" recordCount="0"/>
							<ScoreDistribution value="1" recordCount="0"/>
							<ScoreDistribution value="2" recordCount="1"/>
						</Node>
					</Node>
				</TreeModel>
			</Segment>
			<Segment id="22">
				<True/>
				<TreeModel functionName="classification" missingValueStrategy="nullPrediction">
					<MiningSchema>
						<MiningField name="double(petal width (cm))"/>
						<MiningField name="double(petal length (cm))"/>
					</MiningSchema>
					<Node>
						<True/>
						<Node score="0" recordCount="1">
							<SimplePredicate field="double(petal width (cm))" operator="lessOrEqual" value="0.75"/>
							<ScoreDistribution value="0" recordCount="1"/>
							<ScoreDistribution value="1" recordCount="0"/>
							<ScoreDistribution value="2" recordCount="0"/>
						</Node>
						<Node>
							<SimplePredicate field="double(petal width (cm))" operator="lessOrEqual" value="1.699999988079071"/>
							<Node score="1" recordCount="1">
								<SimplePredicate field="double(petal length (cm))" operator="lessOrEqual" value="4.950000047683716"/>
								<ScoreDistribution value="0" recordCount="0"/>
								<ScoreDistribution value="1" recordCount="1"/>
								<ScoreDistribution value="2" recordCount="0"/>
							</Node>
							<Node score="2" recordCount="1">
								<SimplePredicate field="double(petal width (cm))" operator="lessOrEqual" value="1.550000011920929"/>
								<ScoreDistribution value="0" recordCount="0"/>
								<ScoreDistribution value="1" recordCount="0"/>
								<ScoreDistribution value="2" recordCount="1"/>
							</Node>
							<Node score="1" recordCount="1">
								<True/>
								<ScoreDistribution value="0" recordCount="0"/>
								<ScoreDistribution value="1" recordCount="1"/>
								<ScoreDistribution value="2" recordCount="0"/>
							</Node>
						</Node>
						<Node score="2" recordCount="1">
							<True/>
							<ScoreDistribution value="0" recordCount="0"/>
							<ScoreDistribution value="1" recordCount="0"/>
							<ScoreDistribution value="2" recordCount="1"/>
						</Node>
					</Node>
				</TreeModel>
			</Segment>
			<Segment id="23">
				<True/>
				<TreeModel functionName="classification" missingValueStrategy="nullPrediction">
					<MiningSchema>
						<MiningField name="double(petal width (cm))"/>
						<MiningField name="double(petal length (cm))"/>
						<MiningField name="double(sepal length (cm))"/>
						<MiningField name="double(sepal width (cm))"/>
					</MiningSchema>
					<Node>
						<True/>
						<Node>
							<SimplePredicate field="double(petal length (cm))" operator="lessOrEqual" value="4.8500001430511475"/>
							<Node score="0" recordCount="1">
								<SimplePredicate field="double(petal length (cm))" operator="lessOrEqual" value="2.350000023841858"/>
								<ScoreDistribution value="0" recordCount="1"/>
								<ScoreDistribution value="1" recordCount="0"/>
								<ScoreDistribution value="2" recordCount="0"/>
							</Node>
							<Node score="2" recordCount="1">
								<SimplePredicate field="double(sepal length (cm))" operator="lessOrEqual" value="4.950000047683716"/>
								<ScoreDistribution value="0" recordCount="0"/>
								<ScoreDistribution value="1" recordCount="0"/>
								<ScoreDistribution value="2" recordCount="1"/>
							</Node>
							<Node score="1" recordCount="1">
								<SimplePredicate field="double(petal length (cm))" operator="lessOrEqual" value="4.75"/>
								<ScoreDistribution value="0" recordCount="0"/>
								<ScoreDistribution value="1" recordCount="1"/>
								<ScoreDistribution value="2" recordCount="0"/>
							</Node>
							<Node score="1" recordCount="1">
								<SimplePredicate field="double(petal width (cm))" operator="lessOrEqual" value="1.5999999642372131"/>
								<ScoreDistribution value="0" recordCount="0"/>
								<ScoreDistribution value="1" recordCount="1"/>
								<ScoreDistribution value="2" recordCount="0"/>
							</Node>
							<Node score="2" recordCount="1">
								<SimplePredicate field="double(sepal width (cm))" operator="lessOrEqual" value="3.0"/>
								<ScoreDistribution value="0" recordCount="0"/>
								<ScoreDistribution value="1" recordCount="0"/>
								<ScoreDistribution value="2" recordCount="1"/>
							</Node>
							<Node score="1" recordCount="1">
								<True/>
								<ScoreDistribution value="0" recordCount="0"/>
								<ScoreDistribution value="1" recordCount="1"/>
								<ScoreDistribution value="2" recordCount="0"/>
							</Node>
						</Node>
						<Node score="2" recordCount="1">
							<True/>
							<ScoreDistribution value="0" recordCount="0"/>
							<ScoreDistribution value="1" recordCount="0"/>
							<ScoreDistribution value="2" recordCount="1"/>
						</Node>
					</Node>
				</TreeModel>
			</Segment>
			<Segment id="24">
				<True/>
				<TreeModel functionName="classification" missingValueStrategy="nullPrediction">
					<MiningSchema>
						<MiningField name="double(petal width (cm))"/>
						<MiningField name="double(petal length (cm))"/>
						<MiningField name="double(sepal width (cm))"/>
					</MiningSchema>
					<Node>
						<True/>
						<Node score="0" recordCount="1">
							<SimplePredicate field="double(petal width (cm))" operator="lessOrEqual" value="0.800000011920929"/>
							<ScoreDistribution value="0" recordCount="1"/>
							<ScoreDistribution value="1" recordCount="0"/>
							<ScoreDistribution value="2" recordCount="0"/>
						</Node>
						<Node score="1" recordCount="1">
							<SimplePredicate field="double(petal length (cm))" operator="lessOrEqual" value="4.950000047683716"/>
							<ScoreDistribution value="0" recordCount="0"/>
							<ScoreDistribution value="1" recordCount="1"/>
							<ScoreDistribution value="2" recordCount="0"/>
						</Node>
						<Node>
							<SimplePredicate field="double(petal width (cm))" operator="lessOrEqual" value="1.699999988079071"/>
							<Node>
								<SimplePredicate field="double(petal length (cm))" operator="lessOrEqual" value="5.450000047683716"/>
								<Node score="1" recordCount="1">
									<SimplePredicate field="double(sepal width (cm))" operator="lessOrEqual" value="2.75"/>
									<ScoreDistribution value="0" recordCount="0"/>
									<ScoreDistribution value="1" recordCount="1"/>
									<ScoreDistribution value="2" recordCount="0"/>
								</Node>
								<Node score="2" recordCount="1">
									<True/>
									<ScoreDistribution value="0" recordCount="0"/>
									<ScoreDistribution value="1" recordCount="0"/>
									<ScoreDistribution value="2" recordCount="1"/>
								</Node>
							</Node>
							<Node score="2" recordCount="1">
								<True/>
								<ScoreDistribution value="0" recordCount="0"/>
								<ScoreDistribution value="1" recordCount="0"/>
								<ScoreDistribution value="2" recordCount="1"/>
							</Node>
						</Node>
						<Node score="2" recordCount="1">
							<True/>
							<ScoreDistribution value="0" recordCount="0"/>
							<ScoreDistribution value="1" recordCount="0"/>
							<ScoreDistribution value="2" recordCount="1"/>
						</Node>
					</Node>
				</TreeModel>
			</Segment>
			<Segment id="25">
				<True/>
				<TreeModel functionName="classification" missingValueStrategy="nullPrediction">
					<MiningSchema>
						<MiningField name="double(petal width (cm))"/>
						<MiningField name="double(petal length (cm))"/>
						<MiningField name="double(sepal length (cm))"/>
					</MiningSchema>
					<Node>
						<True/>
						<Node score="0" recordCount="1">
							<SimplePredicate field="double(petal width (cm))" operator="lessOrEqual" value="0.800000011920929"/>
							<ScoreDistribution value="0" recordCount="1"/>
							<ScoreDistribution value="1" recordCount="0"/>
							<ScoreDistribution value="2" recordCount="0"/>
						</Node>
						<Node>
							<SimplePredicate field="double(petal width (cm))" operator="lessOrEqual" value="1.699999988079071"/>
							<Node score="1" recordCount="1">
								<SimplePredicate field="double(petal length (cm))" operator="lessOrEqual" value="4.950000047683716"/>
								<ScoreDistribution value="0" recordCount="0"/>
								<ScoreDistribution value="1" recordCount="1"/>
								<ScoreDistribution value="2" recordCount="0"/>
							</Node>
							<Node score="2" recordCount="1">
								<True/>
								<ScoreDistribution value="0" recordCount="0"/>
								<ScoreDistribution value="1" recordCount="0"/>
								<ScoreDistribution value="2" recordCount="1"/>
							</Node>
						</Node>
						<Node>
							<SimplePredicate field="double(sepal length (cm))" operator="lessOrEqual" value="6.049999952316284"/>
							<Node score="2" recordCount="1">
								<SimplePredicate field="double(sepal length (cm))" operator="lessOrEqual" value="5.8500001430511475"/>
								<ScoreDistribution value="0" recordCount="0"/>
								<ScoreDistribution value="1" recordCount="0"/>
								<ScoreDistribution value="2" recordCount="1"/>
							</Node>
							<Node score="1" recordCount="1">
								<True/>
								<ScoreDistribution value="0" recordCount="0"/>
								<ScoreDistribution value="1" recordCount="1"/>
								<ScoreDistribution value="2" recordCount="0"/>
							</Node>
						</Node>
						<Node score="2" recordCount="1">
							<True/>
							<ScoreDistribution value="0" recordCount="0"/>
							<ScoreDistribution value="1" recordCount="0"/>
							<ScoreDistribution value="2" recordCount="1"/>
						</Node>
					</Node>
				</TreeModel>
			</Segment>
			<Segment id="26">
				<True/>
				<TreeModel functionName="classification" missingValueStrategy="nullPrediction">
					<MiningSchema>
						<MiningField name="double(petal width (cm))"/>
						<MiningField name="double(petal length (cm))"/>
						<MiningField name="double(sepal length (cm))"/>
						<MiningField name="double(sepal width (cm))"/>
					</MiningSchema>
					<Node>
						<True/>
						<Node>
							<SimplePredicate field="double(sepal length (cm))" operator="lessOrEqual" value="5.549999952316284"/>
							<Node score="0" recordCount="1">
								<SimplePredicate field="double(petal length (cm))" operator="lessOrEqual" value="2.449999988079071"/>
								<ScoreDistribution value="0" recordCount="1"/>
								<ScoreDistribution value="1" recordCount="0"/>
								<ScoreDistribution value="2" recordCount="0"/>
							</Node>
							<Node score="2" recordCount="1">
								<SimplePredicate field="double(sepal length (cm))" operator="lessOrEqual" value="5.0"/>
								<ScoreDistribution value="0" recordCount="0"/>
								<ScoreDistribution value="1" recordCount="0"/>
								<ScoreDistribution value="2" recordCount="1"/>
							</Node>
							<Node score="1" recordCount="1">
								<True/>
								<ScoreDistribution value="0" recordCount="0"/>
								<ScoreDistribution value="1" recordCount="1"/>
								<ScoreDistribution value="2" recordCount="0"/>
							</Node>
						</Node>
						<Node>
							<SimplePredicate field="double(petal length (cm))" operator="lessOrEqual" value="4.950000047683716"/>
							<Node>
								<SimplePredicate field="double(sepal width (cm))" operator="lessOrEqual" value="3.9000000953674316"/>
								<Node>
									<SimplePredicate field="double(sepal length (cm))" operator="lessOrEqual" value="5.6499998569488525"/>
									<Node score="1" recordCount="1">
										<SimplePredicate field="double(petal length (cm))" operator="lessOrEqual" value="4.25"/>
										<ScoreDistribution value="0" recordCount="0"/>
										<ScoreDistribution value="1" recordCount="1"/>
										<ScoreDistribution value="2" recordCount="0"/>
									</Node>
									<Node score="2" recordCount="1">
										<True/>
										<ScoreDistribution value="0" recordCount="0"/>
										<ScoreDistribution value="1" recordCount="0"/>
										<ScoreDistribution value="2" recordCount="1"/>
									</Node>
								</Node>
								<Node score="1" recordCount="1">
									<SimplePredicate field="double(petal width (cm))" operator="lessOrEqual" value="1.699999988079071"/>
									<ScoreDistribution value="0" recordCount="0"/>
									<ScoreDistribution value="1" recordCount="1"/>
									<ScoreDistribution value="2" recordCount="0"/>
								</Node>
								<Node score="2" recordCount="1">
									<True/>
									<ScoreDistribution value="0" recordCount="0"/>
									<ScoreDistribution value="1" recordCount="0"/>
									<ScoreDistribution value="2" recordCount="1"/>
								</Node>
							</Node>
							<Node score="0" recordCount="1">
								<True/>
								<ScoreDistribution value="0" recordCount="1"/>
								<ScoreDistribution value="1" recordCount="0"/>
								<ScoreDistribution value="2" recordCount="0"/>
							</Node>
						</Node>
						<Node>
							<SimplePredicate field="double(petal width (cm))" operator="lessOrEqual" value="1.699999988079071"/>
							<Node score="1" recordCount="1">
								<SimplePredicate field="double(sepal length (cm))" operator="lessOrEqual" value="6.150000095367432"/>
								<ScoreDistribution value="0" recordCount="0"/>
								<ScoreDistribution value="1" recordCount="1"/>
								<ScoreDistribution value="2" recordCount="0"/>
							</Node>
							<Node score="2" recordCount="1">
								<True/>
								<ScoreDistribution value="0" recordCount="0"/>
								<ScoreDistribution value="1" recordCount="0"/>
								<ScoreDistribution value="2" recordCount="1"/>
							</Node>
						</Node>
						<Node score="2" recordCount="1">
							<True/>
							<ScoreDistribution value="0" recordCount="0"/>
							<ScoreDistribution value="1" recordCount="0"/>
							<ScoreDistribution value="2" recordCount="1"/>
						</Node>
					</Node>
				</TreeModel>
			</Segment>
			<Segment id="27">
				<True/>
				<TreeModel functionName="classification" missingValueStrategy="nullPrediction">
					<MiningSchema>
						<MiningField name="double(petal width (cm))"/>
						<MiningField name="double(petal length (cm))"/>
						<MiningField name="double(sepal length (cm))"/>
					</MiningSchema>
					<Node>
						<True/>
						<Node score="0" recordCount="1">
							<SimplePredicate field="double(petal width (cm))" operator="lessOrEqual" value="0.800000011920929"/>
							<ScoreDistribution value="0" recordCount="1"/>
							<ScoreDistribution value="1" recordCount="0"/>
							<ScoreDistribution value="2" recordCount="0"/>
						</Node>
						<Node score="1" recordCount="1">
							<SimplePredicate field="double(petal length (cm))" operator="lessOrEqual" value="4.75"/>
							<ScoreDistribution value="0" recordCount="0"/>
							<ScoreDistribution value="1" recordCount="1"/>
							<ScoreDistribution value="2" recordCount="0"/>
						</Node>
						<Node>
							<SimplePredicate field="double(petal length (cm))" operator="lessOrEqual" value="5.200000047683716"/>
							<Node>
								<SimplePredicate field="double(petal width (cm))" operator="lessOrEqual" value="1.699999988079071"/>
								<Node score="1" recordCount="1">
									<SimplePredicate field="double(sepal length (cm))" operator="lessOrEqual" value="6.150000095367432"/>
									<ScoreDistribution value="0" recordCount="0"/>
									<ScoreDistribution value="1" recordCount="1"/>
									<ScoreDistribution value="2" recordCount="0"/>
								</Node>
								<Node score="1" recordCount="1">
									<SimplePredicate field="double(petal width (cm))" operator="lessOrEqual" value="1.449999988079071"/>
									<ScoreDistribution value="0" recordCount="0"/>
									<ScoreDistribution value="1" recordCount="1"/>
									<ScoreDistribution value="2" recordCount="0"/>
								</Node>
								<Node score="2" recordCount="1">
									<True/>
									<ScoreDistribution value="0" recordCount="0"/>
									<ScoreDistribution value="1" recordCount="0"/>
									<ScoreDistribution value="2" recordCount="1"/>
								</Node>
							</Node>
							<Node score="2" recordCount="1">
								<True/>
								<ScoreDistribution value="0" recordCount="0"/>
								<ScoreDistribution value="1" recordCount="0"/>
								<ScoreDistribution value="2" recordCount="1"/>
							</Node>
						</Node>
						<Node score="2" recordCount="1">
							<True/>
							<ScoreDistribution value="0" recordCount="0"/>
							<ScoreDistribution value="1" recordCount="0"/>
							<ScoreDistribution value="2" recordCount="1"/>
						</Node>
					</Node>
				</TreeModel>
			</Segment>
			<Segment id="28">
				<True/>
				<TreeModel functionName="classification" missingValueStrategy="nullPrediction">
					<MiningSchema>
						<MiningField name="double(petal width (cm))"/>
						<MiningField name="double(petal length (cm))"/>
						<MiningField name="double(sepal length (cm))"/>
						<MiningField name="double(sepal width (cm))"/>
					</MiningSchema>
					<Node>
						<True/>
						<Node score="0" recordCount="1">
							<SimplePredicate field="double(petal length (cm))" operator="lessOrEqual" value="2.699999988079071"/>
							<ScoreDistribution value="0" recordCount="1"/>
							<ScoreDistribution value="1" recordCount="0"/>
							<ScoreDistribution value="2" recordCount="0"/>
						</Node>
						<Node>
							<SimplePredicate field="double(sepal length (cm))" operator="lessOrEqual" value="6.1499998569488525"/>
							<Node>
								<SimplePredicate field="double(petal width (cm))" operator="lessOrEqual" value="1.6500000357627869"/>
								<Node score="1" recordCount="1">
									<SimplePredicate field="double(petal length (cm))" operator="lessOrEqual" value="4.849999904632568"/>
									<ScoreDistribution value="0" recordCount="0"/>
									<ScoreDistribution value="1" recordCount="1"/>
									<ScoreDistribution value="2" recordCount="0"/>
								</Node>
								<Node score="2" recordCount="1">
									<SimplePredicate field="double(sepal width (cm))" operator="lessOrEqual" value="2.450000047683716"/>
									<ScoreDistribution value="0" recordCount="0"/>
									<ScoreDistribution value="1" recordCount="0"/>
									<ScoreDistribution value="2" recordCount="1"/>
								</Node>
								<Node score="1" recordCount="1">
									<True/>
									<ScoreDistribution value="0" recordCount="0"/>
									<ScoreDistribution value="1" recordCount="1"/>
									<ScoreDistribution value="2" recordCount="0"/>
								</Node>
							</Node>
							<Node score="2" recordCount="1">
								<True/>
								<ScoreDistribution value="0" recordCount="0"/>
								<ScoreDistribution value="1" recordCount="0"/>
								<ScoreDistribution value="2" recordCount="1"/>
							</Node>
						</Node>
						<Node score="1" recordCount="1">
							<SimplePredicate field="double(petal width (cm))" operator="lessOrEqual" value="1.550000011920929"/>
							<ScoreDistribution value="0" recordCount="0"/>
							<ScoreDistribution value="1" recordCount="1"/>
							<ScoreDistribution value="2" recordCount="0"/>
						</Node>
						<Node score="2" recordCount="1">
							<True/>
							<ScoreDistribution value="0" recordCount="0"/>
							<ScoreDistribution value="1" recordCount="0"/>
							<ScoreDistribution value="2" recordCount="1"/>
						</Node>
					</Node>
				</TreeModel>
			</Segment>
			<Segment id="29">
				<True/>
				<TreeModel functionName="classification" missingValueStrategy="nullPrediction">
					<MiningSchema>
						<MiningField name="double(petal width (cm))"/>
						<MiningField name="double(sepal length (cm))"/>
					</MiningSchema>
					<Node>
						<True/>
						<Node score="0" recordCount="1">
							<SimplePredicate field="double(petal width (cm))" operator="lessOrEqual" value="0.75"/>
							<ScoreDistribution value="0" recordCount="1"/>
							<ScoreDistribution value="1" recordCount="0"/>
							<ScoreDistribution value="2" recordCount="0"/>
						</Node>
						<Node>
							<SimplePredicate field="double(petal width (cm))" operator="lessOrEqual" value="1.6500000357627869"/>
							<Node score="1" recordCount="1">
								<SimplePredicate field="double(sepal length (cm))" operator="lessOrEqual" value="7.099999904632568"/>
								<ScoreDistribution value="0" recordCount="0"/>
								<ScoreDistribution value="1" recordCount="1"/>
								<ScoreDistribution value="2" recordCount="0"/>
							</Node>
							<Node score="2" recordCount="1">
								<True/>
								<ScoreDistribution value="0" recordCount="0"/>
								<ScoreDistribution value="1" recordCount="0"/>
								<ScoreDistribution value="2" recordCount="1"/>
							</Node>
						</Node>
						<Node score="2" recordCount="1">
							<True/>
							<ScoreDistribution value="0" recordCount="0"/>
							<ScoreDistribution value="1" recordCount="0"/>
							<ScoreDistribution value="2" recordCount="1"/>
						</Node>
					</Node>
				</TreeModel>
			</Segment>
			<Segment id="30">
				<True/>
				<TreeModel functionName="classification" missingValueStrategy="nullPrediction">
					<MiningSchema>
						<MiningField name="double(petal length (cm))"/>
						<MiningField name="double(sepal length (cm))"/>
						<MiningField name="double(sepal width (cm))"/>
					</MiningSchema>
					<Node>
						<True/>
						<Node score="0" recordCount="1">
							<SimplePredicate field="double(petal length (cm))" operator="lessOrEqual" value="2.699999988079071"/>
							<ScoreDistribution value="0" recordCount="1"/>
							<ScoreDistribution value="1" recordCount="0"/>
							<ScoreDistribution value="2" recordCount="0"/>
						</Node>
						<Node>
							<SimplePredicate field="double(petal length (cm))" operator="lessOrEqual" value="4.8500001430511475"/>
							<Node score="2" recordCount="1">
								<SimplePredicate field="double(sepal length (cm))" operator="lessOrEqual" value="4.950000047683716"/>
								<ScoreDistribution value="0" recordCount="0"/>
								<ScoreDistribution value="1" recordCount="0"/>
								<ScoreDistribution value="2" recordCount="1"/>
							</Node>
							<Node score="1" recordCount="1">
								<True/>
								<ScoreDistribution value="0" recordCount="0"/>
								<ScoreDistribution value="1" recordCount="1"/>
								<ScoreDistribution value="2" recordCount="0"/>
							</Node>
						</Node>
						<Node>
							<SimplePredicate field="double(sepal width (cm))" operator="lessOrEqual" value="2.549999952316284"/>
							<Node score="1" recordCount="1">
								<SimplePredicate field="double(petal length (cm))" operator="lessOrEqual" value="4.950000047683716"/>
								<ScoreDistribution value="0" recordCount="0"/>
								<ScoreDistribution value="1" recordCount="1"/>
								<ScoreDistribution value="2" recordCount="0"/>
							</Node>
							<Node score="2" recordCount="1">
								<True/>
								<ScoreDistribution value="0" recordCount="0"/>
								<ScoreDistribution value="1" recordCount="0"/>
								<ScoreDistribution value="2" recordCount="1"/>
							</Node>
						</Node>
						<Node score="2" recordCount="1">
							<True/>
							<ScoreDistribution value="0" recordCount="0"/>
							<ScoreDistribution value="1" recordCount="0"/>
							<ScoreDistribution value="2" recordCount="1"/>
						</Node>
					</Node>
				</TreeModel>
			</Segment>
			<Segment id="31">
				<True/>
				<TreeModel functionName="classification" missingValueStrategy="nullPrediction">
					<MiningSchema>
						<MiningField name="double(petal width (cm))"/>
						<MiningField name="double(petal length (cm))"/>
					</MiningSchema>
					<Node>
						<True/>
						<Node score="0" recordCount="1">
							<SimplePredicate field="double(petal width (cm))" operator="lessOrEqual" value="0.800000011920929"/>
							<ScoreDistribution value="0" recordCount="1"/>
							<ScoreDistribution value="1" recordCount="0"/>
							<ScoreDistribution value="2" recordCount="0"/>
						</Node>
						<Node>
							<SimplePredicate field="double(petal length (cm))" operator="lessOrEqual" value="4.75"/>
							<Node score="1" recordCount="1">
								<SimplePredicate field="double(petal width (cm))" operator="lessOrEqual" value="1.6500000357627869"/>
								<ScoreDistribution value="0" recordCount="0"/>
								<ScoreDistribution value="1" recordCount="1"/>
								<ScoreDistribution value="2" recordCount="0"/>
							</Node>
							<Node score="2" recordCount="1">
								<True/>
								<ScoreDistribution value="0" recordCount="0"/>
								<ScoreDistribution value="1" recordCount="0"/>
								<ScoreDistribution value="2" recordCount="1"/>
							</Node>
						</Node>
						<Node>
							<SimplePredicate field="double(petal length (cm))" operator="lessOrEqual" value="5.1499998569488525"/>
							<Node>
								<SimplePredicate field="double(petal width (cm))" operator="lessOrEqual" value="1.699999988079071"/>
								<Node score="1" recordCount="1">
									<SimplePredicate field="double(petal length (cm))" operator="lessOrEqual" value="4.950000047683716"/>
									<ScoreDistribution value="0" recordCount="0"/>
									<ScoreDistribution value="1" recordCount="1"/>
									<ScoreDistribution value="2" recordCount="0"/>
								</Node>
								<Node score="2" recordCount="1">
									<SimplePredicate field="double(petal width (cm))" operator="lessOrEqual" value="1.550000011920929"/>
									<ScoreDistribution value="0" recordCount="0"/>
									<ScoreDistribution value="1" recordCount="0"/>
									<ScoreDistribution value="2" recordCount="1"/>
								</Node>
								<Node score="1" recordCount="1">
									<True/>
									<ScoreDistribution value="0" recordCount="0"/>
									<ScoreDistribution value="1" recordCount="1"/>
									<ScoreDistribution value="2" recordCount="0"/>
								</Node>
							</Node>
							<Node score="2" recordCount="1">
								<True/>
								<ScoreDistribution value="0" recordCount="0"/>
								<ScoreDistribution value="1" recordCount="0"/>
								<ScoreDistribution value="2" recordCount="1"/>
							</Node>
						</Node>
						<Node score="2" recordCount="1">
							<True/>
							<ScoreDistribution value="0" recordCount="0"/>
							<ScoreDistribution value="1" recordCount="0"/>
							<ScoreDistribution value="2" recordCount="1"/>
						</Node>
					</Node>
				</TreeModel>
			</Segment>
			<Segment id="32">
				<True/>
				<TreeModel functionName="classification" missingValueStrategy="nullPrediction">
					<MiningSchema>
						<MiningField name="double(petal width (cm))"/>
						<MiningField name="double(petal length (cm))"/>
					</MiningSchema>
					<Node>
						<True/>
						<Node>
							<SimplePredicate field="double(petal width (cm))" operator="lessOrEqual" value="1.600000023841858"/>
							<Node score="0" recordCount="1">
								<SimplePredicate field="double(petal width (cm))" operator="lessOrEqual" value="0.800000011920929"/>
								<ScoreDistribution value="0" recordCount="1"/>
								<ScoreDistribution value="1" recordCount="0"/>
								<ScoreDistribution value="2" recordCount="0"/>
							</Node>
							<Node score="1" recordCount="1">
								<SimplePredicate field="double(petal length (cm))" operator="lessOrEqual" value="4.950000047683716"/>
								<ScoreDistribution value="0" recordCount="0"/>
								<ScoreDistribution value="1" recordCount="1"/>
								<ScoreDistribution value="2" recordCount="0"/>
							</Node>
							<Node score="2" recordCount="1">
								<True/>
								<ScoreDistribution value="0" recordCount="0"/>
								<ScoreDistribution value="1" recordCount="0"/>
								<ScoreDistribution value="2" recordCount="1"/>
							</Node>
						</Node>
						<Node>
							<SimplePredicate field="double(petal width (cm))" operator="lessOrEqual" value="1.8499999642372131"/>
							<Node>
								<SimplePredicate field="double(petal length (cm))" operator="lessOrEqual" value="4.8500001430511475"/>
								<Node score="2" recordCount="1">
									<SimplePredicate field="double(petal length (cm))" operator="lessOrEqual" value="4.650000095367432"/>
									<ScoreDistribution value="0" recordCount="0"/>
									<ScoreDistribution value="1" recordCount="0"/>
									<ScoreDistribution value="2" recordCount="1"/>
								</Node>
								<Node score="1" recordCount="1">
									<True/>
									<ScoreDistribution value="0" recordCount="0"/>
									<ScoreDistribution value="1" recordCount="1"/>
									<ScoreDistribution value="2" recordCount="0"/>
								</Node>
							</Node>
							<Node score="2" recordCount="1">
								<True/>
								<ScoreDistribution value="0" recordCount="0"/>
								<ScoreDistribution value="1" recordCount="0"/>
								<ScoreDistribution value="2" recordCount="1"/>
							</Node>
						</Node>
						<Node score="2" recordCount="1">
							<True/>
							<ScoreDistribution value="0" recordCount="0"/>
							<ScoreDistribution value="1" recordCount="0"/>
							<ScoreDistribution value="2" recordCount="1"/>
						</Node>
					</Node>
				</TreeModel>
			</Segment>
			<Segment id="33">
				<True/>
				<TreeModel functionName="classification" missingValueStrategy="nullPrediction">
					<MiningSchema>
						<MiningField name="double(petal width (cm))"/>
						<MiningField name="double(petal length (cm))"/>
						<MiningField name="double(sepal width (cm))"/>
					</MiningSchema>
					<Node>
						<True/>
						<Node score="0" recordCount="1">
							<SimplePredicate field="double(petal width (cm))" operator="lessOrEqual" value="0.800000011920929"/>
							<ScoreDistribution value="0" recordCount="1"/>
							<ScoreDistribution value="1" recordCount="0"/>
							<ScoreDistribution value="2" recordCount="0"/>
						</Node>
						<Node score="1" recordCount="1">
							<SimplePredicate field="double(petal length (cm))" operator="lessOrEqual" value="4.8500001430511475"/>
							<ScoreDistribution value="0" recordCount="0"/>
							<ScoreDistribution value="1" recordCount="1"/>
							<ScoreDistribution value="2" recordCount="0"/>
						</Node>
						<Node>
							<SimplePredicate field="double(petal length (cm))" operator="lessOrEqual" value="4.950000047683716"/>
							<Node score="2" recordCount="1">
								<SimplePredicate field="double(sepal width (cm))" operator="lessOrEqual" value="2.9499999284744263"/>
								<ScoreDistribution value="0" recordCount="0"/>
								<ScoreDistribution value="1" recordCount="0"/>
								<ScoreDistribution value="2" recordCount="1"/>
							</Node>
							<Node score="1" recordCount="1">
								<True/>
								<ScoreDistribution value="0" recordCount="0"/>
								<ScoreDistribution value="1" recordCount="1"/>
								<ScoreDistribution value="2" recordCount="0"/>
							</Node>
						</Node>
						<Node score="2" recordCount="1">
							<True/>
							<ScoreDistribution value="0" recordCount="0"/>
							<ScoreDistribution value="1" recordCount="0"/>
							<ScoreDistribution value="2" recordCount="1"/>
						</Node>
					</Node>
				</TreeModel>
			</Segment>
			<Segment id="34">
				<True/>
				<TreeModel functionName="classification" missingValueStrategy="nullPrediction">
					<MiningSchema>
						<MiningField name="double(petal width (cm))"/>
						<MiningField name="double(petal length (cm))"/>
						<MiningField name="double(sepal length (cm))"/>
						<MiningField name="double(sepal width (cm))"/>
					</MiningSchema>
					<Node>
						<True/>
						<Node>
							<SimplePredicate field="double(sepal length (cm))" operator="lessOrEqual" value="5.450000047683716"/>
							<Node score="0" recordCount="1">
								<SimplePredicate field="double(petal length (cm))" operator="lessOrEqual" value="3.199999988079071"/>
								<ScoreDistribution value="0" recordCount="1"/>
								<ScoreDistribution value="1" recordCount="0"/>
								<ScoreDistribution value="2" recordCount="0"/>
							</Node>
							<Node score="2" recordCount="1">
								<True/>
								<ScoreDistribution value="0" recordCount="0"/>
								<ScoreDistribution value="1" recordCount="0"/>
								<ScoreDistribution value="2" recordCount="1"/>
							</Node>
						</Node>
						<Node>
							<SimplePredicate field="double(petal width (cm))" operator="lessOrEqual" value="1.699999988079071"/>
							<Node>
								<SimplePredicate field="double(sepal width (cm))" operator="lessOrEqual" value="3.299999952316284"/>
								<Node score="1" recordCount="1">
									<SimplePredicate field="double(petal length (cm))" operator="lessOrEqual" value="5.0"/>
									<ScoreDistribution value="0" recordCount="0"/>
									<ScoreDistribution value="1" recordCount="1"/>
									<ScoreDistribution value="2" recordCount="0"/>
								</Node>
								<Node score="1" recordCount="1">
									<SimplePredicate field="double(sepal width (cm))" operator="lessOrEqual" value="2.75"/>
									<ScoreDistribution value="0" recordCount="0"/>
									<ScoreDistribution value="1" recordCount="1"/>
									<ScoreDistribution value="2" recordCount="0"/>
								</Node>
								<Node score="2" recordCount="1">
									<True/>
									<ScoreDistribution value="0" recordCount="0"/>
									<ScoreDistribution value="1" recordCount="0"/>
									<ScoreDistribution value="2" recordCount="1"/>
								</Node>
							</Node>
							<Node score="0" recordCount="1">
								<True/>
								<ScoreDistribution value="0" recordCount="1"/>
								<ScoreDistribution value="1" recordCount="0"/>
								<ScoreDistribution value="2" recordCount="0"/>
							</Node>
						</Node>
						<Node>
							<SimplePredicate field="double(petal width (cm))" operator="lessOrEqual" value="1.8499999642372131"/>
							<Node score="1" recordCount="1">
								<SimplePredicate field="double(petal length (cm))" operator="lessOrEqual" value="4.8500001430511475"/>
								<ScoreDistribution value="0" recordCount="0"/>
								<ScoreDistribution value="1" recordCount="1"/>
								<ScoreDistribution value="2" recordCount="0"/>
							</Node>
							<Node score="2" recordCount="1">
								<True/>
								<ScoreDistribution value="0" recordCount="0"/>
								<ScoreDistribution value="1" recordCount="0"/>
								<ScoreDistribution value="2" recordCount="1"/>
							</Node>
						</Node>
						<Node score="2" recordCount="1">
							<True/>
							<ScoreDistribution value="0" recordCount="0"/>
							<ScoreDistribution value="1" recordCount="0"/>
							<ScoreDistribution value="2" recordCount="1"/>
						</Node>
					</Node>
				</TreeModel>
			</Segment>
			<Segment id="35">
				<True/>
				<TreeModel functionName="classification" missingValueStrategy="nullPrediction">
					<MiningSchema>
						<MiningField name="double(petal width (cm))"/>
						<MiningField name="double(petal length (cm))"/>
						<MiningField name="double(sepal width (cm))"/>
					</MiningSchema>
					<Node>
						<True/>
						<Node score="0" recordCount="1">
